{"layer_sizes": [12, 128, 64, 32, 1], "trained": true, "weights": [[[0.19955653679516624, -0.0734586117544445, 0.223090570080693, 0.6138902685980901, -0.10168791891143547, -0.03202572584782461, 0.6447109322095165, 0.30114442673243874, -0.19166211547451606, 0.22727818411337955, -0.10654011638985741, -0.19884049185027342, 0.09125144100502246, -0.7870614411685588, -0.7066368940041191, -0.24273416588137722, -0.41234468906891153, 0.11471702663519097, -0.3793028351597496, -0.576570571685919, 0.6025102489729653, -0.08932868449407813, 0.034547699577676214, -0.5865000523479069, -0.22196253238015037, 0.04756201012220851, -0.4744842789719768, 0.19935881849517667, -0.2540119010762744, -0.08132424692061319, -0.27746218769971903, 0.7260938479808475, -0.009693683902578121, -0.43097018019115246, 0.327498211618647, -0.4984073330243326, 0.08680620705695666, -0.834491121473109, -0.5488882829587607, 0.0969349705171767, 0.34497340919885605, 0.04859201085130061, -0.049347756376603207, -0.09465788540515466, -0.6036040749807303, -0.28755322933312116, -0.14542560193767606, 0.42995641289377606, 0.09839149702263386, -0.7270874263623192, 0.17097756292869437, -0.10573353282308103, -0.2711129820970306, 0.2503590301796093, 0.4015606557405458, 0.39513351274024633, -0.34260911918295944, -0.12018783748126163, 0.1509558721772277, 0.36315690628474306, -0.19302884408124835, -0.08465271430479913, -0.4385563351707827, -0.4883493093224827, 0.33147370319427694, 0.5221477424049623, -0.02939800903126622, 0.36602395108516705, 0.14763728899584339, -0.29011571900961286, 0.143534798165236, 0.554454661948341, -0.01712145697176399, 0.7215324965761178, -1.0493424706451289, 0.43045424774835206, 0.0016952980435606811, -0.12852041147175636, 0.024439628110275058, -0.8168658097946098, -0.08975834729252795, 0.1413874609016563, 0.5998094088576925, -0.2072062677590203, -0.33138130882194955, -0.21338912452125003, 0.3841279872236919, 0.14944427449857928, -0.21988902964412035, 0.24659723894213084, 0.02242616830029763, 0.3739648012004906, -0.2541420970022237, -0.13376751119825855, -0.12888324647405047, -0.49953321553373187, 0.12089059688329865, 0.105707575208995, 0.0015804233378677126, -0.10295979797869036, -0.5566374015031027, -0.20074216204621992, -0.145607990223135, -0.32917269757113854, -0.09210331992177104, 0.14108993616797202, 0.7794773754797355, 0.09641417579065129, 0.14111596991683065, -0.025865689701858027, -0.7595838514012172, -0.04256671827965093, -0.02212387775895778, 1.0550931788931488, -0.07842200475859737, 0.12730681511786127, -0.07740231184962718, -0.4946275137296875, 0.43766611885675566, 0.28444340222393705, 0.32723814159370734, -0.3768904695269297, 0.6043250297024091, -0.5736501224499948, 0.23655278715604158, 0.9129749901863685, -0.40355186173348695, -0.18741349049006759], [0.04068249943941981, -0.2029689482952505, -0.6110003324404818, 0.02724389664592154, -0.4294156976220095, 0.2216356340694324, -0.3753533718369965, 0.6172438610937301, -0.3197618175964611, -0.12139749467898063, 0.35039393279407793, -0.5229429809423924, 0.08207296735170048, 0.5114870360186002, -0.6569980147309222, 0.0689570879901134, 0.1197561137823099, 0.33246954896980374, -0.5054510109519371, -0.5390741549233584, 0.21337750468466374, 0.12124348514141718, 0.1780100391994485, 0.11719168433754681, -0.2732336474696724, 0.09459871269135697, 0.18598702788747845, -0.3122370798963386, 0.6988375540611819, 0.26404377990390354, -0.519042397951055, 0.2623320147690048, -0.39630393462112007, 0.32574982060636526, 0.5011545451004124, -0.3350421534810056, 0.39332385051481655, 0.2066070358669115, 0.344646184118673, 0.764731650047771, -0.07735946360241795, -0.3077115005597344, -0.3631427452375581, -0.3219963446857213, -0.03147664106014957, 0.12864818423082722, 0.0841224683172827, 0.34019899153869876, -0.016758506976899297, 0.589494014565688, -0.026016462389143957, 1.1556541811866927, 0.23912193686412708, -0.35874971699471053, -0.47318133580002875, 0.19114261368612712, -0.09122830009157185, 0.2841334480556674, 0.20646961050618287, -0.0554363212168963, -0.3457020877769647, -0.6135962057940554, -0.16075970830986394, 0.349623343737871, 0.08640303922198003, -0.5281818183580627, 0.07070081691969407, 0.11123778034122682, -0.36083328734288544, 0.056037995036246555, 0.041798921048656144, -0.4659073191807052, 0.13550430231808677, 0.24809053005366993, 0.4526659868187474, 0.42779098846917646, -0.5328396154563634, -0.38213438833792096, 0.19362735231003406, 0.249956159864986, 0.20987896434234407, 1.5613075385920012, 0.22266624757251316, 0.4804629029681886, 0.39210279561546774, 0.28497346484514935, -0.10154305139167893, 0.3144499642178553, -0.30343478648441785, -0.09081383389568402, -0.19656516551037218, -0.0010670113224037932, 0.9493307279752371, -0.762307822718257, 0.2681911985807769, -0.6583884974171148, -0.19266537742395745, 0.44783280406419584, 0.02147410012076452, -0.45010513541218705, -0.34105021393812074, 0.28382807306758856, -0.3157525243367405, 0.08014697948609016, 0.04680263236711337, -0.26594916576988314, 0.8917144880787597, 0.29306848597998963, -0.8267609989485337, 0.10207518640433125, -0.2746331333662203, 0.3537140363299701, -0.35440006559172726, 8.365930865224788e-05, 0.20670534467614574, 0.37642963394540063, -0.6036002437833656, -0.10121069252791816, -0.19197930478206107, -0.286013195212589, 0.7232062715354474, 0.1720993793577677, -0.5128680163115243, 0.36798145786648684, 0.8894343662368068, 0.4262547829938938, -0.6202801911828637, -0.17709018127057624], [0.5091488932728563, -0.26750084553607195, 0.15787847607418995, 0.2791678897009291, -0.3183125463040329, 0.006681921529625562, -1.3232418505195513, -0.417707313854292, -0.10311051603187583, -0.5027127545278621, 0.711556407546394, -0.5845176938342947, -0.19307693516877414, 0.06908881573924722, 0.5838346098139707, -0.586188268560771, 0.47088462053262314, 0.01135640189989048, -0.4026294959149968, 0.188652953385392, 0.08314186658293832, -0.2450375140076364, 0.008071764871169956, -0.15730361721129568, 0.04777847351470242, 0.27611807824949786, 0.6051674626561002, -0.46615931299878793, 0.8802326221319732, -0.8054598873912434, -0.04546261530518273, 0.2132668525608617, 0.11460508825867467, -0.2542160144394258, -0.08496555291584972, -0.20126678877155513, -0.2406071544821245, 0.24165578081363992, 0.12611320670255574, -0.26625358422648776, 0.35935320195473064, 0.1473619575119821, 0.3265132134075348, 0.2127660987010666, -0.33843579601200746, -0.2325080690169733, 0.31113369132603635, 0.24390137337486764, -0.010053120027821848, 0.021695743775885106, 0.526457723160703, -0.23011363643836952, 0.20402481417408222, -0.03185657672953017, -0.10623174909923525, 0.4710378606574277, 0.3369748133952865, 0.36064823760049286, 0.5507589151035824, 0.0008904220493546094, 0.2848891830914571, -0.11209697032520811, 0.1702135962059196, -0.05313067946135281, 0.039598436890169904, 0.20903779617440474, -0.3340371951522391, 0.8317458421423107, -0.4107048761741852, -0.4840179383272145, 0.4811173005323754, 0.2740838291611741, 0.24956065287560286, 0.26232095678023254, 0.040154165644146055, -0.3181460389131949, -0.020373196800223904, -0.27938613449825184, 0.3738545415886721, -0.09374838204289802, -0.33700781937325397, -0.13120522043412436, 0.13380768048098524, -0.2586475720551735, -0.33567007087451683, 0.06859366433710758, 0.13354558144150358, -0.21271900274606392, -0.20737380635173033, 0.10051093625301034, -0.6375403241128856, -0.4733506201722016, -0.2682203861636194, -0.08713943479074245, 0.1375838812639406, 0.6149539857830463, 0.3501380749721053, -0.09065343058783944, -0.019258578825000643, -0.4382558868289183, 0.06991960339399338, -0.09909536356121636, 0.12304449127665532, -0.3377156185240442, 0.15523886057168607, 0.6084555897113104, -0.06259265008370843, 0.15687720424284782, 0.30982399674369643, -0.16545851696730685, 0.06314948228509212, -0.01682788320881991, -0.005030047303866159, -0.3221046100732774, 0.010006236740184743, 0.2123764979559493, 0.5810534713573129, 0.34856781986404173, 0.8744672243041223, -0.3254562465503009, 0.36564386443101754, 0.05737942697425069, 0.9086765025179164, -0.32998639318111234, -0.3451624030886173, -0.22302254124242193, -0.8670767985729868, -0.18301790009097216], [-0.3099146113145795, 0.03530913209208947, 0.10310707073592522, 0.7730388905823586, 0.3570180140506208, -0.19001132995508058, -0.36677625370562045, 0.1915696375471634, -0.5389829497798005, 0.7487751317617338, 0.54244748019953, -0.19589235997893087, -0.6993842428359658, 0.544892702485258, -0.04722858863462105, 0.4934390237753405, -0.6509223659710999, -0.2637975866644804, -0.0055971207932804775, 0.019179747089433166, -0.1803863997137653, 0.2571215243032046, -0.43585421515973954, -0.05812618135706826, 0.04794012919323272, 0.2100187745527072, 0.2895827769306163, -0.4247022989850696, -0.6262994875792046, 0.5486574982419432, 0.10378773564608632, -0.32375787208735984, 0.6287937836316358, 0.047177694724516404, 0.4675097406393455, 0.027564304610393095, 0.8428293803307272, 0.7166148981088354, -0.10225099086517425, 0.4084848264095072, 0.30556811914144233, 0.5286097152717409, -0.3939283532103024, 0.32384667724366906, 0.4320999873414357, -0.7080290985013937, -0.4370876024692839, -0.8325130504294614, -0.14685362843571362, 0.29686904381470336, 0.6336584017053387, 0.06813701475620468, 0.6811106198219443, -0.5812927992423385, -0.7006023368149508, -0.01555770763205472, 0.15679406295570827, -0.017242509827677888, -0.8380855617573516, -0.06327627532864075, -0.5325474435433556, 0.2577398409016018, 0.143310987605395, -0.38370431600968363, -0.20982379212090255, -0.44646120514113113, -0.025588634309590595, 0.364469131292486, -0.40242097328218834, 0.1757044547026769, -0.22741637492465736, -0.3776323405912833, -0.0419840658592553, -0.34601674132865906, -0.22602638242449236, -0.4128958766152263, 0.7828639594594977, 0.008973306170216945, -0.2856617424319312, 0.08735693275085615, -0.04585773425742113, -0.0923008959582742, 0.26318231437213496, 0.3216570509907259, -0.21841800550492171, -0.2350768123610999, -0.12072112234646781, -0.9231394725659391, -0.6185741608686837, 0.5915965998851026, 0.6725778939124669, -0.15675062375445337, 0.2569399123034483, 0.12706734349901178, 1.2862741738570485, 0.5499518707936503, -0.052222138042277745, -0.38147614194938034, -0.6507843812216582, 0.08948720918440939, -0.30877889875338554, -0.6184233773793852, -0.26265940656802744, -0.4415401235301807, 0.6795877695145437, 0.34296465625116945, 0.010176395035426762, 0.6253216888931058, 0.05632738574769231, -0.35161780279579724, 0.6577903619679686, 0.19591219688146014, -0.4460333024795269, -0.03500169062166112, -0.35746965504328077, -0.5685501280573106, 0.3421447370449359, 0.7721507454447314, -0.5984090906819007, 0.2160329524536414, -0.2656237165470017, -0.19886810516349038, -0.2164615763968181, -0.35272275469834213, 0.013103666803927674, -0.33013065258585567, 0.11124643641237597, 0.006499181497603025], [-0.0647805462394763, -0.36717613687348627, -0.12902371150525188, 0.27578176685484684, 0.2930295123121692, -0.4444111336620864, 0.04055224387931576, 0.3346195146225605, -0.6815318521091447, 0.2803488728965809, -0.49434193902690443, 0.24330753962564572, -0.3029551310404736, -0.7483439356092566, -0.6700257311252894, 0.05804670043678686, 0.15771798689213923, -0.39436683874454076, 0.2554737469859454, -0.6783127249927141, -0.074190851515503, -0.49306311486659954, -0.2995836668129703, 0.02917244487489408, -0.34169804331264053, -0.1570487367493352, 0.4403710806628236, -0.29076739989138084, 0.3947122779616839, -0.541047898123652, 0.20743902154762456, 0.6365200301712715, -1.0218093699170738, -0.3491200055383167, 0.3040197834140715, -0.08289293173862687, 0.13211342713275867, -0.31875729085056914, 0.0638438160001949, -0.16616301902297267, 0.3779904662351195, 0.12837118691847837, 0.1372909204254241, -0.22370716948632616, -0.19906440739713482, -0.08411671695877451, 0.2573766640504393, -0.17457419772337965, 0.1727994438828344, 0.9638054555170139, 0.3347525996227324, -0.2769394514041204, 0.45555491536386117, -0.06330994307304812, -0.8591050177656542, -0.4082243131294627, -0.7637476035724118, -0.06031762303842648, -0.09203556256180785, 0.7429828845851516, 0.15104765863017375, -0.06579704389499551, 0.4490046891636409, -0.9026922098867546, 0.0954578121999311, 0.3435994403472242, -0.6036303071430015, 0.5373814650378791, 0.13819057968775372, -0.14848309531771314, 0.23344712995079092, 1.1090910952167223, 0.07128558609530297, 0.02808416989833209, -0.19780809995233317, -0.36847712690341, 0.4124391219259381, -0.35350996738385715, -0.01295395587775153, -0.17579466739618688, 0.19186915282643513, 0.11017458218480489, 0.39793013793476784, -0.21200735197456017, -0.09601320219386221, -0.4688092285094743, -0.18634835558125362, 0.15245016527519661, 0.32937960749446055, -0.37367505055725364, 0.39086703505175546, 0.6941901994575583, 0.08051673628512855, 0.7661986820265672, -0.4112642638765485, -0.5522052366324047, -0.7261595008286287, 0.6385843625782597, 0.2722367950796805, -0.0021548877550485557, 0.17677647472472077, -0.41147044639639474, 0.9742123988980732, 0.049275911352608504, 0.021404913890277013, 0.2790689341811329, 0.20410104299845144, 0.11096747829876358, -0.31325398450725905, 0.20958957380421384, 0.8044851449210161, 0.6274337648344053, 0.8338880113937536, -0.3722428854954603, -0.4029383187912945, -0.14510470660000743, 0.14832447615878902, 0.47615032661967166, -0.6641041130394953, 0.6763408302913863, -0.1272328160089554, -0.1784661581482958, -0.5195838499752651, -0.6773797357330331, 0.30417677731143533, -0.013453366288880643, -0.5262573027442047, -0.5041381779518829], [-0.14260582294902271, 0.6796699682738446, -0.12906942031148488, -0.6421058674174741, -0.06568796585839086, -0.027329783934768464, -1.1009993615557232, -0.03969523982898504, -0.0942786271667681, 0.30502876670543205, 0.8410820391068572, 0.43959077089688076, -0.1289871405459204, -0.46460866912845306, 1.0451190322742567, 0.012336934956605553, 0.01760935152376779, -0.01123316750267502, 0.0721022954838005, -0.05893489137860858, -0.23518971114284357, -0.22077457725892766, 0.029641337831332732, -0.2409069741834777, -0.2859967670410444, 0.048160054033496005, -0.08270417047313836, 0.6538765025049369, -1.122614778843518, 0.5120911295804639, 0.466738751347064, -0.8855238205633087, -0.14364973982108745, -0.14998856547507786, -0.5560581460147802, -0.3175423330032395, -0.45402174955227936, 0.6538779005464743, 0.37416426226509075, 0.5263887324589724, 0.33367503313666147, -0.4653291932742165, -0.21933727831441804, 0.20450221836232851, -0.4989315887084834, 0.29508751414274503, -0.0706547674968273, -0.15556954979553772, 0.2434291253450304, 0.17020725570764922, -0.057962938500750155, 0.5403188059770039, -0.4601934077306325, 0.2797231830788352, 0.1911193890656283, -0.10644071025665983, 0.13314324879415768, -0.48999805478532366, 0.40005844184845285, -0.12099061250416099, -0.206691281766285, 0.43230013309140086, -0.23495224330651138, -0.5750019164249396, -0.6364172334221375, 0.1941423107632868, -0.5227330942163586, 0.6435521915043795, -0.8499441216349721, 0.6736674671496069, 0.09719093438187879, -0.10943142410969103, -0.23485455482968384, 0.24231952097197912, 0.029992452747384327, 0.5496156702503521, 0.018578883232048985, 0.05467489857567316, -0.18587599673789862, -0.01624049853775913, 0.12505506253917797, -0.7118367478065095, -0.5798223484172801, 0.30318082829528437, 0.07146027924051991, -0.09081223792161182, 0.04959438348461531, 0.1549545704767671, -0.22159163840816926, -0.2796551723585855, 0.047155052960506795, -0.378224159901585, 0.20233454704542364, -0.6950768458019007, 0.4349706629782189, 0.2787584507831018, 0.10452370134155678, 0.39237367440442544, 0.6708337921961536, 0.3882161693217401, -0.7227524766611514, -0.5284874743563208, -0.27738972039210574, 0.003533198513120384, 0.17810224223961374, -0.32605885905198784, 0.087239532380392, -0.2666520854180529, -0.2047930169301854, -0.5527329972558641, -0.3715890359364497, -0.5793987302257405, -0.4670882956149609, 0.4867148092424638, -0.3870261006018196, 1.0913234656513475, 0.07715911350260043, 0.06670681123735893, -0.37427349999579, 0.25255519860942327, -0.2300721698347824, 0.04044396646347074, 1.0716472535790411, -0.04496674745636191, 0.4797561418711101, -0.26066058484835947, -0.013560291037249069, 0.7899493487981565], [-0.20963336896460522, 0.7402501695623299, 0.3170561046052194, -0.23128385501412252, 0.3039200526824392, 0.38806215258960236, 0.25385285406856967, -0.6456862349508601, -0.29685250896322396, -0.08049554206105966, -0.052982645703810435, 0.2204632380500435, 0.05734408396336444, -0.5446150530018666, 0.16667099075555833, 0.22260255167785498, 0.2903689448636574, 0.4451993637355351, 0.32297635254297896, 0.18745948236007046, -0.002601638833097543, -0.6780844616351656, 0.187807011510516, 0.05521108371991656, 0.11001509037399766, -0.5178041465614839, -0.412290615824951, 0.40053170634964835, -0.017648996657416014, 0.2656825825499838, -0.027330279206037075, 0.02177823185369102, 0.36916358621393097, -0.21946873998777933, 0.034947304797920936, -0.18872309633752232, -0.18652301472294341, -0.1406523100003552, 0.10342097779195863, -0.2200062305916329, 0.49694561608664317, -0.3696729673730032, -0.055247938935063745, -0.20202030969180462, 0.5907262476264288, 0.11116919770197733, 0.44401502943956517, -0.6062394734413759, 0.08708556312790007, 0.37242381199157554, 0.05428281281010902, 0.3913317976085676, -0.20138448072480886, 0.5936888535628553, 0.8884222385448612, -0.147167382699398, -0.18187564275920562, 0.6082991651019058, 0.6114966807944708, -0.19013180995789883, -0.16667893439575604, -0.10325494726667148, -0.49140372729798676, -0.3750380866834741, -0.40993875141160435, -0.3080747305510829, -0.014160045980585022, 0.1162020390386806, 0.632989175554724, -0.39893881092726086, 0.3872600195468703, -0.06122463817942469, -0.0012924810003612454, 0.2617054293564834, -0.4677828454122872, 0.19294884632087786, 0.040395881635254045, 0.1944796391482354, 0.1039287092055405, 0.9962504164451016, -0.25911536997499623, -0.20132094220790334, -0.25826065537168624, -0.23268281624213194, -0.2489342738306456, 0.44941571993236706, 0.5506132093932107, -0.2126061652184005, -0.30023316353347834, 0.1817957423306119, -0.2068260002225165, 0.28268016498772974, 0.07675112703741295, -0.618799943728281, 0.6093763905350236, 0.7229207242448081, -0.25016993530584, -0.1693792098631988, 0.12463581591380489, 0.13545423057795605, 0.2739069542017348, 0.7864778883704495, -0.08196422443405622, -0.32271773861664727, -0.5597128539225786, -0.28522835973374877, -0.010996015279930106, 0.7548398635332146, -0.2152283034841963, 0.09931165863408752, -0.017457984213594718, 0.4736825340501158, 1.059184561507081, -0.23419684295263013, -0.1990769013097535, 0.412177299374271, 0.22950073575812796, 0.7473256094045719, 0.26266421973461557, -0.15805700734586473, 0.24774223905861145, 0.4583220489645402, 0.3108394774879386, 0.2011924694454431, 0.41114225962564716, 0.4499445758298335, 0.565085505653845, 0.29803059210238797], [-0.004483188030549958, 0.0767816693443043, 0.6514593895978005, -0.3441704498365084, 0.17577471109532394, -0.1970992009140489, 0.011735024822825681, 0.5523360437039688, 0.07801586782836302, 0.04427182633262282, -0.74811979587283, 0.3465402244086608, 0.2817803073891651, 0.8663379182443189, -0.12913764628934707, 0.07848112476899215, 0.10799898747342698, 0.681335537804999, -0.029838622062376068, 0.11391006089835969, 0.25461942126741266, 0.0781811231292452, -0.14509738571962064, 0.07346336424823531, 0.4526312774423133, -0.4247412487749775, 0.0822740155891683, -0.33215479118455166, 0.6111745099112054, -0.6965686890839865, -0.18764116838672315, 0.2655800310586264, 0.6199768053738183, -0.012825476779824548, -0.21440436593739523, 0.7679791576931314, -0.6202848397983985, -0.9388264911217893, 0.2394009810526276, -0.3093426857872954, -0.48020322927698045, 0.32594222262915423, 0.07831269972533819, -0.2904576140805293, -0.5226820820307567, 0.44721984161150125, 0.39519244222718525, -0.041517970514291194, 0.875743009794431, -0.40821517017609577, -0.7713717978481051, -0.43122724034816146, -0.03843356457865398, 0.19036152203101325, -0.11395660834886348, 0.13435881456797613, -0.5109388303738763, 0.6924641353577754, -0.11530737684574949, 0.5100899945369413, 0.15089416613190895, 0.21767956934629412, 0.31268264334673723, 0.18277625425310665, 0.26229369124189006, 0.6073961405046465, 0.08022943157058389, 0.40318372232942296, -0.03663444378634815, 0.6408074281417966, -0.3307283806645584, 0.8607227148335588, -0.0398217742529857, -0.6361329631150842, 0.055138849088384796, -0.3583089319858299, 0.45536362730667584, -0.27024983859115365, -0.20074128713554024, -0.8031733957377821, -0.18553563596643186, -1.058453912286983, -0.6399211821177867, 0.32520863229767294, 0.339126050661675, 0.17314510530497906, -0.3895238467929852, -0.0011489286282923674, 0.011244257972688274, -0.4801661239569736, 0.6212017159171387, 0.44060069782453537, -0.13107569239592723, 0.010976097807203856, 0.051121406542362996, -0.9355175157570508, -0.10090974385536604, -0.3041814651503071, -0.4167757154131688, -0.08382895358086005, 0.8276215881073742, 0.31618447258998145, -0.23419199736663515, 0.23104130772815878, 0.5583931683593794, 0.38162737596711027, -0.03317127939922346, -0.2843936690749718, 0.26453059772571313, 0.1828546936881371, 0.3895750012574193, 0.2740858451250192, 0.6274714447367399, -0.4124247531208413, 0.53942303754212, -0.03509204512097252, 1.0396836810067553, -0.3050546667805393, 0.7674786381294271, 0.10020231659193271, -0.25964486200181197, -0.189553387676789, -0.16224295075772688, 0.1704846198985556, 0.1607336947578336, -0.29247755941232584, -0.009392258791070302, 0.9281626546411694], [0.7052650866224426, 0.17812720390086056, 0.015514930625741639, 0.048998758925833025, 0.25047841627136047, -0.41755646310268507, -0.1050735314085891, -0.6811954565840335, 0.16298215731725044, 0.26422288280525535, -0.19727432493627609, 0.6425747715482707, -0.5004172659101627, -0.5978285863223437, 0.09163158222787723, 0.42748295333336683, 0.6874677348395251, -0.18734622733842177, 0.4403679152376663, -0.015721016842043526, -0.07048252710270805, 0.3607526588303381, 0.26630096307764, -0.6435573522365857, 0.6027950759263023, 0.5634204946046698, -0.25538326963281466, 0.161582461504021, 0.20168268048609445, 0.10641511536479345, -0.22466651956821485, -0.2741930499696069, -0.010432405796649728, 0.47875964735047777, 0.2219328730239398, -0.15130266749555918, 0.3150446820946217, -1.162919365475153, 0.4689799306621729, -0.7102401290543813, -0.1479743790816549, -0.45710332036497686, -0.5285494577346062, 0.4739032351793581, -0.1909382158834747, 0.14146438414707393, -0.019153769897262935, 0.1947507989518251, 0.031358395156708206, -0.5237647678122627, 0.4067359511680367, -0.20158198098429117, -0.6354751426699087, -0.17477089171048024, 0.6126801100402836, 0.347103008223347, -0.14233663783858552, -0.1425816877659126, -0.13131371577442888, 0.8478322052242686, 0.15592603469709707, 0.17556419364720358, 0.4206200108063048, 0.09748526595387767, -0.10575361322597458, -0.08016163320836958, -0.029231091750851187, -0.015196721168435236, 0.2970535172807978, 0.021204689410236625, 0.2991007856846536, -0.032937642596287176, 0.03210458041354587, -0.815767798897714, 0.3740873815325775, 0.14145812521580167, 0.4074357226495272, -1.1823915273885883, 0.8525709363697953, -0.05698116861206168, 0.45241327764621553, -0.42453683257500496, 0.25015938221193545, -0.43005714892381314, -0.2546523199923679, 0.7813896985998064, -0.07784703304993879, 0.08876452832977136, 0.35520544279169786, 0.20236242966227483, 0.06141289428491501, 0.1490075761998549, 0.9811811506498458, -0.023522775387545537, 0.08208743238912902, 0.4289314478532278, 0.45132907219356416, 0.4846098433655035, 0.260762071707751, -0.4666298139603212, 0.6668456306516907, -0.4679918015061944, 0.12354687308010133, -0.3079320766393394, -0.026186569552647747, 0.13421369351049273, 0.1312004448150848, 0.1722533897704045, 0.6587983371013327, 0.1851549486979712, -0.09967351746599351, 0.39359718587199877, 0.48560691489491925, -0.5011739311196813, 0.24388755723919692, 0.2862500868221449, -0.12148020102870354, 0.561636741548143, -0.06126178830985668, 0.05127221768735939, -0.07066631495410161, 0.006358691363880018, -0.4475652427862476, -0.5878983110000978, 0.6509544555598167, -0.34577120350954293, -0.4047342318444901, -0.8791195050292436], [-0.26085504116604147, -0.5401491462887968, 0.6684924062480689, 0.4112608447207288, -0.2817153327288055, 0.9201007784644495, 0.40080408170074033, -0.13381382754444318, -1.0203781102727456, 0.9351068403050355, -0.5611809186788815, -0.6717312255765334, 0.41736638419414923, 0.9954359988301809, 0.5639133868002879, 0.2280473900926872, 0.24131231816888268, 0.35037571183223043, 0.30988959573190816, 0.11479591812859699, 0.044608369578914266, -0.025553537459765956, -0.3078047544751099, -0.11458512030667385, -0.6911467252244139, -0.0403823542490257, -0.4035906294621397, -0.4505384521275203, 0.07346884597904882, 0.5719251912963549, 0.37533632743636963, -0.6411541866016269, -0.40599515913677126, 0.38451370429269655, -0.4010987988143115, -0.09170609946779781, 0.22550976512719137, -0.3954337397278037, 0.04320030630417469, -0.5438651737389607, -0.2456578730048669, 0.13091422003701864, -0.6503369684339505, 0.1806508907237168, -0.00801709784029069, 0.22644166170587682, 0.09078169693397994, 0.5580016698381735, 0.050701942012649374, -0.17717141520657456, 0.047748538729596716, 0.22598656640702594, 0.02223740142307299, 0.016571488541022007, -0.28658690646694973, -0.2706281663371008, -0.5726112044078269, 0.714439442933834, -0.5081705928609388, -0.28427727995542945, -0.2932885380254433, 0.36435902754191657, -0.12055656554235944, 0.509388568108889, -0.27495139599099927, 0.11335148196113891, -0.3410290064373215, 0.8748546405462816, -0.48483502432638503, 0.12918557370396264, 0.25932457095996425, 0.16520168334265925, -0.07564336998087583, -0.051895606205669624, 0.018614844948866945, -0.0592748896447335, 0.39159844373277986, 0.9032512794251178, -0.22759506817709552, -0.5592197246854644, -0.03555154257787121, 1.0500534791660479, -0.3280987684629263, 0.6658907678973757, 0.6855047395244032, -0.22600145329818458, 0.2312611904631654, 0.6662075684859313, -0.15477825212556784, -0.0833112503972044, -0.23784713978012922, -0.4146382871247549, -0.26137360156358774, -0.4996715215355757, 0.014376697695316585, -0.3143402552826275, 0.09544269882310823, -0.6363090902396957, 0.13640976905927266, 0.3383842760435854, -0.8139391677166681, 0.15270795517704788, 0.5032172100573667, -0.49383387795565037, 0.6847745813959248, 0.17306045263987485, -0.28949440350408606, -0.02297376528013234, 0.2283325098441661, 0.03102907111015377, 0.21944302081749406, -0.37751324424183114, 0.06487644053367711, -0.5775286151805243, -0.04540784940063566, -0.3676634282689663, -0.3025014576402989, 0.5058831382968861, 0.4457415465754881, 0.24805911584826001, -0.443893947899159, -0.1291732086762241, 0.49890342972348894, 0.05785568772330602, 0.9496314211833107, 0.16210777993705391, 0.07840372349215068, -0.12748325830511903], [0.05451784608436426, -0.06133110739119349, 0.2911594520132821, 0.38784116099846594, -0.31899034238746427, -0.5441703499522934, -0.7496277045099806, 0.20802706776348756, -0.4504475307253983, -0.8768747985889179, 0.15140119942942823, 1.0148361584015742, -0.0024784392577187875, 0.3411913554797305, 0.033406695736797914, -0.04245579508243523, 0.37718241797819296, -0.11850408643019397, 0.10997900767934421, 0.13133257942549767, -0.27579133216478174, 0.40784369747284505, -0.07344224004692967, -0.30853166938929333, 0.22053486909614584, -0.3667980176027082, 0.014258110883657499, -0.004551280785696754, 0.442879960771406, 0.18750045554970082, -0.01431983913581919, 0.3344360247441577, 0.5643236302721414, 0.2252230720938271, 0.00852214185885857, -0.5355548992255076, -0.43483083210022383, -0.12477561575737874, -0.24858791397227456, -0.0781852401252598, 0.01939137556897549, 0.21822962690677833, -0.028781005622415284, 0.19628698922171425, 0.02632156962488956, -0.8053709104881825, -0.3833318719899758, -0.05882349830046612, -0.49346382623607116, 0.25172109818950067, 0.6298181536818175, 0.49468723719460606, -0.08636733952833711, 0.6100512201499425, 0.06069323525037156, -0.13925524497350839, -0.2504205887565688, -0.12348273242591899, -0.15972406419342478, 0.07236759656779135, 0.06555405325658395, 0.0007735111368144589, 0.1814505600080703, 0.4860793062286907, 0.38661498508636644, -0.6043668021012866, -1.042633937303252, 0.3842031985051504, -0.5580258918995659, -0.09062654221038638, -0.47769664253823113, -0.7323392105273218, 0.2196351532127542, 0.3081027112101329, -0.23668645758020893, -1.0577885862877285, -0.2223078946783614, 0.15995331540248375, -0.6037631196992679, 0.07485637378943136, -0.006202845477309754, 0.23722218299062406, 0.04926826385164566, -0.3972895149767618, 0.485724115232751, -0.06471942717622664, -0.014789224029592589, -0.3797730886147926, -0.18158758609340256, -0.36121919539926856, -0.06836493604840096, 0.7000073723088782, -0.5621987639793585, -0.6587336822416606, 0.5938230160062806, -0.08545603335085893, -0.2731478017538859, 0.4257630547666853, -0.24681354125384442, 0.7461645533659435, 0.27676207803548136, -0.19918899827329925, 0.8799623034767635, -0.24728208182456332, 0.30417487745241184, 0.12405597349549727, 0.5323474465483886, 0.63781134898516, 0.013863056296901132, -0.30758155757375377, 0.1882005232817116, -0.2743961032282735, 0.8267918272532363, 0.05144655071422075, -0.14914189879277479, 0.07833348637564401, -0.5473482153186631, -0.39286806001383295, 0.4901580057876547, -0.26629370754150944, -0.42739961894774475, 0.21908756879199112, 0.4808280621917416, 0.2935114600023481, 0.4098992512597059, -0.3088966315738031, -0.580451774060643, 0.6074660041662883], [-0.14884361247835606, -0.09393129596098401, 0.5470717913425157, 0.21732674073151212, 0.21726422818373267, 0.9179630319375119, -0.26271521743502374, 0.3640024933472625, 0.023275510773237452, 0.09715232043302235, 0.6447544636617586, 0.20890500313461205, 0.20518403934270713, 0.43370109792853706, -0.16218679306302747, -0.32942004806261627, -0.3949270594681946, -0.7714489890167795, 0.8273218752790088, -0.4503829293313093, -0.10280071900267322, -0.1126293425630718, 0.12088975483714993, 0.3240071253238368, 0.37259465267776565, -0.228857219413681, -0.08007093703455441, 0.1153508116608145, -0.04506434936381578, 0.6096061723665454, 0.18312183128910134, 0.30798729734160907, 0.2555939494419068, 0.47570833992324985, 0.07987239936987078, -0.5294294257718958, 0.16109168740524998, -0.230559122138945, -0.20939008174714324, 0.22390602522278708, 0.47810230352327576, 0.006915027805104403, 0.10186320072154892, 0.7042616815825862, 0.09828707394994757, 1.0630520650008735, 0.26472293049651385, -0.7193871681485751, 0.2973355686677789, 0.16938428578236853, 0.5389617320994667, 0.29642299210867706, -0.04366497974669208, -0.41909702937608523, -0.09877138270578147, -0.3435586771453622, -0.23699770595696223, 0.2344171312634428, 0.6588049631925942, 0.15802669529875304, -0.4897603935051369, 0.17466614315336473, 0.49228534115844114, -0.24894282824247713, -0.05542878398115012, -0.006697050650461513, -0.32043339450379443, 0.24579350148832452, -0.04937687490389608, 0.18504322521833025, -0.3621090547062654, -0.1684333080007234, 0.27832107324938316, -0.1195736396028906, 0.7347941306011324, -0.1214721040779486, 0.043115636760224264, 0.3730517503234284, -0.5834292012124187, -0.6889210059403218, -0.6252184301257708, 0.5117050159876481, -0.23560704416848285, 1.0042144003213356, -0.21620843485691366, 0.05750783583778626, 0.6269837189046321, 0.8444019974668272, 0.846083957793535, 0.49495855763869046, 0.3965969903641783, 0.2545779285551236, 0.34574050976646903, -0.22502062641922352, -0.33436865590868636, 0.04023949076123477, -0.06947758120903987, -0.2088160288758385, 0.26180158344456195, 0.39170519189738395, 0.07408968721850248, 0.5878249014963218, -0.47444370518750817, -0.08358713385439476, -0.30714161648392146, -0.7576327814223295, -0.04158034568647856, -0.05149322932861875, 0.6208218948775296, 0.2769011207077177, -0.3759507206486509, 0.7343030674169402, 0.4841862068971939, 0.2521868393330819, -0.09232162143211672, -0.3888790085232607, -0.1686117026334159, 0.4286881139745821, 0.7481078418380642, 0.6137227887719183, -0.18517664549021573, -0.4478470721741602, 0.05875311256051735, -0.723469078597367, 0.13338575149444473, -0.04710973949272658, -0.1902139017377721, -0.6037843939104509]], [[0.05381376641230787, -0.06658760495773892, -0.14818633592238098, -0.35307144901476717, -0.0017969113251723352, 0.21934640702581515, 0.20331826164579553, -0.06575281104334589, -0.07527650754522257, 0.05859678200937797, -0.13071285642078437, 0.06057871284581243, 0.09580766013398707, 0.14665405181395863, -0.015510350884895477, -0.04154951221406332, -0.08849880661120949, -0.1033600442549825, -0.02817259240890269, 0.04592068835202226, 0.11525248489846365, -0.1003973688350431, 0.17791768229655341, -0.024152446046360146, -0.0031945113176542472, -0.09498756369013754, -0.3030300325341177, 0.11050567454513122, 0.09636294435219848, -0.035165944639776674, 0.00837383965310899, 0.06449240221301243, -0.19531823211081784, -0.0538227646256792, 0.09928308495272839, -0.14210003662270304, 0.03896876068874935, -0.17657889070438107, 0.05830374780419079, -0.004205986768379444, -0.20189147698818868, 0.14768464307981757, -0.06906412387747969, -0.10425565118077117, 0.035090401717313716, 0.15262368498813003, -0.12747061990539268, 0.010728345989355488, 0.0612909840718917, 0.08796284293694034, 0.016024557862648985, -0.033492718561326046, -0.10344877758108996, 0.010767985380796844, -0.10792823012781569, -0.3668452163128081, 0.0525570912979923, 0.1130258318828422, -0.2953665544427298, -0.12618026612580008, 0.07739428262564972, 0.20645123265174603, 0.002599213459425987, -0.11343968978512704], [-0.03365092484220168, 0.1718595523935231, -0.07436623234497311, -0.059784027871653336, -0.12877925574229984, -0.12501022773021775, 0.01842298921459271, 0.18407407560151712, 0.02663172310737399, -0.03154418776578595, -0.06593317407296168, -0.16700642204270924, 0.11081816300442411, -0.010186707218210751, -0.020610212611786593, 0.39368205222976305, 0.06830014016160789, -0.09680091450879943, -0.04645076039506484, 0.14355571364959435, 0.008781630315597297, -0.1798199503245553, 0.10471844273603755, -0.06931628810189236, 0.24980747903804337, 0.12267120433336105, -0.0559152369573439, 0.1601270452168891, -0.008544269994025369, 0.09946567889390465, 0.05984768590328672, -0.10579458187385919, -0.08044372903968275, 0.1603024807140875, -0.04184691651331761, 0.003790622764697685, -0.12963346031403913, 0.0370581863470685, 0.2578156149053931, -0.1334914959428556, 0.001280410354019768, 0.17441391377501636, 0.012155258706146388, 0.04801822190362085, -0.1685447754527744, 0.07626430969318926, -0.032253635040326745, 0.10525803508081051, 0.13714213666960803, 0.3043255533615301, 0.06197229590386639, 0.05086453414166783, 0.027109505330353306, -0.04414578660133604, 0.06423053521072687, -0.01059002999727515, -0.017468358705905157, 0.1597091385410011, -0.12581782065995514, 0.13706227866215595, 0.16463938341748316, -0.07879667569213604, -0.25209036260747447, -0.09922825873690848], [0.19663168557651417, -0.0028585077873602652, -0.1362051738847911, -0.05907679909493742, 0.14409447555825547, 0.06583959345697775, -0.027598201879548062, -0.030558282785591345, -0.06851697331706795, -0.11530127306231282, 0.20137750233091165, -0.0564644832172109, 0.1553931497032262, 0.19943970473946437, 0.11218968669684513, -0.0016061400411904068, 0.03426388126376112, -0.0030909215141757575, -0.13162914459936093, 0.040544910215200375, -0.1473138072649582, 0.14840211048836593, -0.06004447985105323, 0.00713260402261831, 0.03802977689988894, -0.0360823787958159, 0.07333672518440934, -0.059362957077815554, 0.12139146168363127, -0.16968469229157757, 0.015840177705381375, 0.2423661248822856, -0.12504141557569684, -0.09787653817524045, 0.06423848120736438, -0.04011202961119732, 0.044296256902765216, 0.0950322876027, 0.07934018357022124, 0.1387673370412449, 0.04929636118808961, -0.06147821371347085, 0.08684943375599079, 0.21216193533357597, -0.051737566767412355, -0.16392594727616458, 0.1437482163147503, -0.006738352234213573, -0.26645166784928387, 0.10375266984410743, -0.05849592497663622, -0.0605189443340978, 0.04038502073100125, 0.0238124599723833, 0.06592063449087283, -0.05374203090806464, 0.07685878408490243, -0.019678986848267743, 0.09235131011093788, 0.07660383608081073, -0.11692983775557442, 0.30218212733166844, -0.07002879393303495, 0.09747243223443802], [0.033166374901703564, 0.22977295959939031, 0.003365262899274474, 0.007420842444411708, -0.02637535546599626, -0.04874396261808204, 0.09548399360117406, -0.24094839429233011, -0.13856823846619207, -0.13347536519739914, 0.10227379980376307, 0.272287825213007, -0.013058551887825344, -0.01356369532797453, -0.0004973310905290814, 0.13552507762720098, -0.06045361489683743, 0.02999184144653503, 0.1189080728815764, 0.06263677124248065, 0.011627180532821626, 0.1250794941939789, -0.37676978927048804, 0.08351511889994799, -0.08246576373333103, -0.21463237051891948, 0.06390032494062259, 0.17170731814536971, -0.01887129112699484, 0.11839699723642715, 0.2009940170655558, 0.16436430669800592, 0.20499556617142412, 0.1318784695476225, 0.0094292048626991, -0.155744427970311, -0.031061498409138622, -0.13254150559484593, 0.2713678396872267, -0.021996788593103823, 0.014382344755054507, 0.047906620514458924, 0.046692231964655745, 0.18895349509523798, -0.06087438732305532, 0.022240216872770713, -0.11295301265528608, -0.17644682476161966, -0.07129459288958576, -0.012254939041131802, -0.07768183632665368, -0.05140519766226044, -0.17578968295897923, -0.010388196578586846, -0.1616166592682778, 0.09322101418514704, -0.01126169500563559, -0.16769679487950165, -0.03865113463123293, -0.09402126553885481, 0.039896813802397554, 0.05246371042608939, -0.23409877943225232, -0.018847158848992865], [0.013679386614318272, 0.08391750955630821, 0.020342118732502093, -0.09090072887618235, -0.03880870941541173, -0.10726231612786989, 0.13525961873517348, 0.007242628913504025, 0.2293494192598854, -0.007582601726827597, -0.08316443328858951, -0.19693792493238427, -0.22705695783678698, -0.181086100980782, 0.028180085412498234, 0.05881688800705573, -0.22078890755486238, 0.11023880266667455, -0.06841029513141039, 0.01834912649819367, 0.18694995066404965, 0.11205527372470658, -0.01305648516186056, -0.12108711827832594, -0.2701319815045043, -0.08670067284941034, -0.026391279853461805, -0.123397440893898, 0.005511241225280864, 0.009361413438966943, -0.028226766565393774, -0.08125032260293247, 0.02108183399584096, 0.05827281610300393, -0.13629988468035575, 0.14179712838468053, -0.019153933269260685, 0.01633733009016349, 0.08852680290706964, 0.02909907173605256, 0.11774431773511743, 0.010139426877154288, -0.08926909920317275, 0.032729647913185, -0.17058156117504986, -0.005284452286412737, 0.007289197048938598, -0.025800803947070315, -0.021861856586618163, -0.23808252155449305, -0.07901709325902807, -0.013690767110521059, 0.019665245944837647, -0.12845939261574477, 0.13998185809446856, -0.10514527409375746, 0.1388569212445518, 0.056158450311607495, -0.08077841373047538, 0.22170136676977578, -0.14920460396956, 0.2002873794105418, 0.12855481327013915, -0.05805437848824421], [0.130576228633511, -0.0312558143248691, 0.05277780546918864, 0.05273109419496087, -0.06375243810933252, 0.10190496480383848, 0.10752997159207077, -0.2438744951193593, 0.15420945685947396, -0.2078114985044593, 0.13901903754941455, 0.13292748789070577, -0.12690271922295887, -0.06852847495913689, -0.13537684083311166, -0.03828018921685146, 0.018328440625743583, 0.09379658383833928, 0.16176021405637392, 0.1744604763487445, -0.06724523869061749, -0.026152734218065972, -0.22552459510219044, -0.11507058153689247, 0.15736647245674365, 0.19295891990932842, -0.15429360898499025, -0.07405803239411178, -0.04162059641168483, 0.03431877658535019, -0.0971035775532656, 0.053007630558011214, -0.059229918383864516, 0.014334321375188875, 0.06828553100046245, 0.03343616841194872, -0.07506753541341205, -0.04674754107223933, -0.011045369900666915, -0.04625570672116401, -0.033126654103984104, 0.2041021959763226, 0.11732482554471142, -0.01138442361680657, 0.10464215414737339, -0.03911683665944029, 0.13548402439083665, 0.04101254896215817, 0.011788727138908706, 0.05186849397284195, -0.20202424858486387, -0.1251013393235904, -0.14765527516177018, 0.017867886845463345, 0.2474832152992213, 0.31084239408047454, 0.0660118224754764, 0.062392288939549706, -0.22513221676909237, -0.06813076915150176, -0.09847296898852986, -0.17099166339626612, 0.005111133609346414, -0.10527576730264242], [-0.24741247629697347, 0.09348878201469173, -0.1340928782174758, 0.029905858013893692, 0.2592603337187467, -0.11492307394830292, -0.3162859403432912, -0.03575052773501385, 0.13761995437482138, 0.24479343177757423, -0.1536936993065521, 0.062087402904565214, -0.05816380709750667, -0.013243544288016957, 0.33054291837712935, -0.18787129104939415, 0.03171745768682168, 0.05846164647067915, 0.1357232906174184, 0.01224789418386193, 0.03850631743801279, -0.04895607092772389, 0.033640867655638416, -0.04289903443717631, 0.07769648623200635, -0.046201292005454246, 0.04713754923777331, -0.0036578517106222942, 0.14075628134652102, -0.00642421544856078, -0.22162905852586018, 0.15774018758924896, -0.11321653760782736, -0.08172079233110248, -0.07445766175543651, 0.17180476164635217, -0.26695927674733694, 0.3922185667074992, 0.13200710113325648, 0.027904864266144958, -0.0068617500770357985, 0.03569425935720712, 0.06514030354741729, 0.08065194824375713, 0.06945055825043106, 0.011197585156906102, -0.024667302538415762, -0.018909160456688962, -0.024363535044085127, 0.14172126210838307, 0.07419459028510773, -0.36754857933303503, 0.08198759706622012, 0.024342024339846856, -0.002338594555737177, -0.04856480663611073, 0.14051408999825168, 0.11844080776535723, -0.09660970847795114, 0.05088153589056689, -0.12145709181766075, -0.17245227059861631, -0.07833965307374564, 0.10779918404784485], [0.17240141686034252, 0.06413567751216162, 0.0846225770119952, 0.04966531696789156, -0.05356772913395546, 0.04842563692851598, 0.08184423342580202, 0.09696341869135996, 0.13843868594980774, 0.08853798090013297, 0.058373388369213186, 0.1307842309559331, 0.008148936040289328, -0.059772494581808416, -0.006401320845119347, -0.08830194750193139, -0.09484533825375689, -0.020357618762059108, -0.11687330495713545, -0.038495191204880035, -0.29266133285521023, 0.02656736947069374, 0.020434314165398176, -0.12409471702797056, 0.05161259785714049, 0.14913563086735593, -0.20094498304612177, -0.09534059732077678, -0.04912844473385081, -0.1243573972529877, 0.09998631171965856, -0.02422826734660044, -0.033064355163826345, -0.20986919582263971, 0.0794272537761533, -0.12503755044055131, -0.01756165682579241, 0.008611297256299996, 0.17008232447983138, -0.16409505217708362, -0.37829272592228835, 0.0023941166364745523, 0.20163131519140032, 0.13431005184015188, 0.048577667414100585, -0.05741292036650155, 0.11754644825191325, -0.14433894445318948, 0.03740312667021017, 0.05441085216103957, 0.11991058900648005, 0.37172446340392384, 0.0452058478063661, -0.06362045321343734, -0.004038056996257544, -0.20508851800360006, -0.04634905045403167, -0.05966297141981581, -0.06551104974182406, 0.010726133555678991, -0.10280249154777507, 0.21624723903200943, 0.011073444214686617, 0.04337500094350028], [-0.04098683956411473, 0.01939883548237239, 0.10313728308345434, -0.10839127696386254, -0.08226456113440708, -0.03796575359708308, -0.16823386543415186, -0.10240723246518722, -0.05952760919308238, 0.10929864758909094, 0.03282016612524062, 0.024198738920943045, 0.10636224527099652, -0.01717147354992458, 0.0488081062411112, -0.012902719116562029, 0.033170293674953555, -0.07284483220144776, -0.30485214478455364, -0.01678489527328802, 0.1778435170124925, 0.11577692528019905, 0.12067468557389634, 0.15451634022577723, 0.01108219887017968, 0.02466446342569945, -0.07720648692929377, -0.03950910700338122, 0.0769713937213927, 0.15048555464610203, -0.017430784460124943, -0.05627365810642645, 6.59948570746616e-05, 0.07515084361613936, -0.18048185201669273, -0.28702261914215477, -0.06881710618644794, -0.15258905323926983, -0.06351752470591386, -0.01847253985218394, -0.05665605112787667, 0.18155844180884317, 0.040843095575290006, 0.037559294951353545, 0.07777589300542524, -0.14235413972259614, 0.12988897342753358, -0.009470535816932486, 0.08381007715515157, -0.13398215413001943, -0.19421984575200804, 0.10223620725312858, 0.047051190762189575, -0.1127564442946888, -0.1087078851593368, 0.14067934805184618, -0.14867648660841598, 0.20533411915699543, -0.11257759183098359, 0.07979899070104787, -0.04107730946862308, 0.07539842888529288, -0.06801425026427407, -0.020349113259036777], [0.047176784837940494, -0.1252734319726841, 0.11917920311331036, -0.031101468285881236, -0.04664381666057188, -0.14043479608040185, -0.3229243754259321, -0.04968814747948867, 0.2930592853709466, 0.09807553598725298, -0.02326417633410468, 0.021057612377796353, 0.005036299114587951, 0.09815342273933272, -0.13914033591258762, 0.12028752750455828, 0.10266087223980716, 0.08965974351415512, 0.05065034600688601, 0.002452082211748738, 0.04969104331215472, 0.07385589371701592, -0.046138920001278096, -0.08024450681456993, 0.003583933321997467, 0.20791875956179845, -0.1548883844567376, -0.183440658219055, 0.05600778836146878, 0.004420820952971087, 0.02081622490443055, 0.030494149738562532, -0.02790028182935064, 0.23733469865726897, -0.20011299730956444, -0.08232654168100435, -0.01874326384841252, -0.215829261852574, -0.021981800554008897, 0.20774794834404775, 0.00043295371312885526, -0.00032701508401498437, -0.1525647525627498, -0.10914213989516904, -0.05481813766766557, -0.04458795861107741, 0.14846099670876003, 0.05256817733049625, -0.141835927501137, 0.01972924539430489, 0.030758090052259608, 0.16844877301282624, 0.19724669617431959, -0.12688677397848358, -0.10360201643110496, -0.15732879604922037, -0.0425265226038798, 0.07164718130038909, 0.12341681457363773, -0.012197093075445769, -0.03998094040685549, -0.015657189880519097, -0.09977238188820789, 0.2640935290891017], [-0.3206500498271433, 0.023092572361965557, 0.31570107451289403, 0.12457968262880924, -0.10439985547277814, -0.059554302280944535, -0.028695440344113702, 0.07703571404950103, -0.2649913728873019, 0.1916792126620407, -0.2236393259764484, 0.06354070072859805, -0.04225794606573076, 0.0426033436711982, -0.18833176690360606, -0.010834100865184076, 0.3937042128695119, -0.17363035482066597, 0.044865377065467775, -0.08274777222457613, 0.05851115149529602, 0.0023721592786934056, -0.19844141824606923, 0.10092285902098007, 0.25444814237734203, -0.022709628784094004, 0.08996974276852274, -0.16165911973389546, -0.15805906758968946, 0.05808850490033371, 0.18637586565236322, 0.0444516685982075, -0.03913225381539429, 0.07328674546909901, -0.1563009667462147, 0.2273063665403632, 0.11960574871446478, -0.14869551451519122, -0.058755268469937685, 0.033436374242385526, -0.05612020646416614, 0.03882292347244764, 0.3773369923700343, -0.04540109010837151, 0.030128315496116585, -0.0362921995207968, 0.04663092513249704, -0.04178565828898363, 0.018549754255020513, 0.16898847048359072, 0.11296304175928693, 0.022541654354036402, -0.22540377384026652, 0.12593921122961527, 0.03552216328403034, 0.09977170506175205, -0.3378441163706189, 0.1473777694697965, -0.15139649116009765, 0.08868509716415185, 0.0017841334795542633, -0.5543112018054078, -0.037803394269213475, -0.04042007058632732], [0.06188947466100032, 0.07305162255906053, 0.2182231529118985, -0.21703241272192844, 0.23729075369271527, 0.011224055807947693, -0.11738077036450094, -0.13085642217621093, -0.03398740371583783, 0.11520626399055742, -0.007463015225074258, 0.1287587980907402, -0.18048930122103, 0.023038720077469255, -0.1582971009630664, 0.07003245622441485, 0.05368704317083302, -0.055630699647751525, -0.3363988514010754, 0.024868518349561816, 0.0378586509987387, 0.05049893705855044, 0.18856689026397647, -0.151350702611426, 0.06927020170196649, 0.1538408966052026, -0.2223234480008146, 0.039956478239872154, -0.041070717664591604, -0.015364406814872292, 0.039947493688791566, -0.06090357051419404, -0.08446350989520147, -0.012655059676936089, -0.13590574235785033, -0.1866872030850216, 0.07844395803281608, -0.11688246122616351, 0.08328906261365149, 0.05729895645147023, -0.21674048660205666, -0.11853399212871925, 0.11087349774951673, -0.13025296654834367, -0.09930590563098383, 0.034365396149185275, 0.11464893058923903, -0.028297720059551886, -0.0944801420378579, 0.17437298324194034, 0.23004660484769932, 0.07867069120368442, 0.007497696999738378, -0.1010332152051158, -0.1461854180058735, 0.07413461100895233, 0.08193883326442669, 0.16569594791855163, 0.0813062615670174, -0.1917389891706703, 0.13149345221536482, 0.06911324324055122, -0.039420116959187707, 0.09195957856422385], [0.25183480373845946, 0.3887398195006701, 0.07584038239202284, -0.022902958805755193, 0.06169711695202921, 0.11156580867804194, -0.03869774447287774, 0.22295236041519548, 0.018983599756935976, 0.06221788613642428, 0.08428504262357452, 0.06662498264881489, 0.10825973293188018, -0.07881256009769343, -0.06921935074535795, -0.135844648875614, 0.0738320036461996, 0.09733512354941416, 0.049552877317610974, 0.20931155416844216, -0.0043674291291788195, 0.08359270694906408, -0.13253102292927607, -0.050080893580020026, 0.09572512477762961, 0.10441321195348326, -0.03674586845802278, -0.008949906482258354, -0.1912034572191456, -0.04547063933451755, 0.11129789543997327, 0.07190062701332078, 0.06258321517265121, 0.017995545077521054, 0.0008828948285220565, -0.06285583385310395, 0.07836576776157969, 0.04479131595948529, 0.06150235599909991, -0.06575435533344755, -0.26916786498390555, 0.13483404419062817, -0.05064120100001147, -0.10630790659633363, 0.07951696243134114, -0.04421925635209419, 0.1317806688894727, 0.07423398383280862, 0.07770651291234307, -0.17371608880926098, 0.15632660742713164, 0.04281751412960086, -0.0468689429836384, 0.017923558417781385, -0.20783563687792325, 0.06506761295500366, -0.13031992162280762, -0.1736267130797853, -0.1902948982772364, 0.138061460683978, -0.07865792421159859, 0.18981435624861367, -0.06377052184005114, -0.23489103697842476], [-0.1387366599270887, 0.15447645250086733, -0.019919596806827942, -0.06966409837159421, 0.05078679950947983, 0.06555190043961813, 0.14012797652574144, 0.17697235719013518, -0.055337244282257725, -0.16575596076025478, -0.054682630370134135, 0.03715799536531781, -0.11763679995203136, -0.10545376902734982, 0.03947864569861352, 0.0020745695806619543, 0.009636571381469046, -0.09426157273022587, -0.034098364426696504, -0.11552914303353805, 0.0937317822803767, 0.12940616684046907, -0.21849211947989983, -0.11707657158626544, -0.1977246727770408, -0.06528983690794364, -0.010429746223795108, -0.18120565246231626, -0.11604051653892346, -0.12608916288476332, 0.026077881116378862, 0.008668042129531303, -0.09021719416715666, 0.03298708321461151, -0.06833501057340817, -0.011605559896826398, 0.20975920401275405, 0.14511372883017226, -0.1624476546159497, 0.10367405494077267, 0.10142456931144901, -0.13881659724944836, 0.09631721966507761, 0.18335258897286427, -0.12956403825081547, -0.10338968713659485, 0.12489511779770555, 0.026753664788843737, 0.06618345532739368, 0.04770589041437879, 0.05221299118531501, -0.16330524809468017, 0.12766134664941062, 0.1461987490534717, -0.020432453902813005, 0.006931263869534572, -0.1972104681121175, 0.06464405624158558, 0.07150718021426801, -0.008473961251655877, 0.14054416998381283, 0.0008701347986826035, 0.06328901873728, -0.13746104117700433], [-0.049024327700269967, -0.02179428223785448, 0.02704050895747677, -0.025459446665569624, -0.02794746999603746, 0.101697190642295, -0.060790805500062606, -0.22724292551308983, 0.2182374606069761, 0.17268175983631082, -0.1733327594015604, 0.1259331024115201, -0.06282166978792243, 0.015651731455272384, 0.03403695291057556, -0.07361536644632337, -0.0633766026555459, -0.08603745027746053, -0.1168975596094726, -0.10397777602880559, -0.006161499495764429, -0.08946999863884397, 0.059840307963177304, 0.2232498077428318, -0.07318783010636329, 0.02101114102504812, 0.06246063878786673, 0.0590002838649093, 0.010136829677548071, 0.09288676250738988, 0.06028111908508215, -0.15470780279091223, 0.10864450804865915, 0.12434202619966697, -0.0954107630223227, 0.04317144158418686, 0.08954806100931917, -0.04707692875120546, 0.13412225597075147, 0.2959238616879595, -0.0982482540793728, -0.15373348505305742, 0.07985790707395174, 0.07543065740013583, -0.005844441131132681, 0.21431056620536262, -0.17018415506865409, 0.08682761114068499, -0.055385286123624214, 0.22323283364153867, 0.22485325705937634, -0.08669969932030225, -0.06869464198857252, 0.10744848587247524, 0.005782530469687315, -0.009266127278979205, -0.009744527362205251, -0.23942599999442715, -0.0017297182617796562, -0.08644734738261484, -0.0616403527999715, 0.09648717551704361, -0.1565029624465636, 0.05950161316126497], [-0.024413576321576872, -0.0349700210619793, 0.09006037662235813, 0.05299417618382837, 0.05866152371529161, 0.11631015537172831, -0.04014477145769566, -0.07987433303142995, -0.13930988911472864, -0.10317631624736939, 0.3543103217557215, 0.16921230160468914, -0.1692139088457053, -0.16288032554764967, 0.0647992211301976, 0.06521272578916343, 0.0686991490569355, -0.031272605585168416, -0.014753924980272677, 0.040984940519919674, 0.006651266506198342, -0.27744195814373673, -0.028937606960349423, -0.1064258042825392, 0.01909311583624546, 0.37200850096650184, 0.04593520818428805, -0.03919121077154974, 0.10967407735271759, 0.057421220925416405, 0.05078858134824355, 0.07585632415195888, 0.25706794560369267, -0.1327751992615405, 0.05920400960143181, -0.1036850170245017, 0.0707447481083209, -0.10859840670819765, -0.05217085170063555, -0.03688623927973829, 0.121511490704888, 0.10543702824298674, -0.1490166681166228, 0.0037222573791327296, -0.08841653032073024, -0.15719084711928039, -0.02628669574770234, -0.04611859846730589, 0.29538416793374267, 0.04827229442114135, -0.17170247185851348, -0.06583343526918876, 0.12739031339235823, 0.26105534660874063, -0.20439403790251168, -0.23218822029615158, 0.23095065576077758, 0.04170643597139217, -0.10853659148454581, 0.06498093656063765, -0.3294684673771097, -0.016617685899756242, 0.036428203681716426, 0.1213536362202837], [-0.12680195104795802, 0.01071089517541988, -0.11779105385179864, 0.0037952405082115484, -0.11100742976379932, -0.04913176909342285, -0.12640821273237055, 0.10535581808825806, 0.10818465970841985, -0.029327571244676724, 0.00011839569816893946, -0.18603581727870389, -0.04017047423461746, -0.008932288143379393, 0.32562673960347316, -0.12169506033457816, 0.1665176194291917, 0.12526856278626916, 0.03934404414171428, 0.21982756052439167, 0.055355375520405724, 0.04864489945849109, 0.001435020704829723, 0.1582012464930056, 0.12847709068968835, -0.07886012598542073, -0.16490589932484592, -0.025372579674457135, -0.08529154361983807, -0.01046255805277838, 0.15423975774248838, -0.05716270688584875, -0.00535292266394686, -0.006309315681979218, 0.10605386027566058, -0.2973136072699103, -0.06899753197045776, 0.04143434299132821, 0.15000986955335766, -0.06138569643462784, -0.23456908825523426, 0.07307601687642079, -0.09492975408800826, -0.14831686078267428, -0.10874873379005419, -0.016561964121682524, -0.07768362793102121, -0.26652702061886807, 0.10554524929032995, 0.1616558461275581, 0.07820366849027499, -0.1572833617727651, -0.025422163328217028, -0.0008151644036822577, 0.07068791662065259, 0.07974424036540802, -0.09054444865893069, 0.0045637883271544485, 0.05716005057690514, 0.17913419603956818, 0.08806331747809039, 0.13960652974190488, 0.004045188682144334, 0.19227625881158703], [0.06370168760174724, -0.1076359887716963, 0.15094845574070173, 0.08132358590115665, -0.06533856816081757, -0.05522196481868023, 0.03883368421149395, 0.06902788488189526, 0.007375186697370522, 0.03891358418036061, 0.20451043177968228, 0.1424937872563324, 0.026596177714346782, 0.11822411863122699, -0.13652165140951866, 0.09425546224132887, 0.260930624157753, -0.026475101587979045, -0.11265113674252773, -0.08151111107413259, -0.12917361441353442, -0.09811688347394859, -0.054031213039961105, -0.18033442515940487, -0.00720843189443793, 0.10705931771299781, -0.11346952251836505, 0.1899104904552211, 0.03552767583030106, 0.11995588448579045, -0.08222931923151713, 0.10681565338332696, -0.13649173754941413, 0.12361380273755793, 0.021479917474191403, 0.11981521878267173, -0.15778045302647245, -0.10470868073015857, 0.0746535272816731, -0.11855969840462618, 0.05782571894618927, -0.1927411630718603, 0.13846272214923613, -0.15163611530515006, 0.061929685391088944, 0.08006551907837396, -0.07222039543927013, 0.05902104812634887, -0.01482916779801028, -0.08880016164216886, -0.09613522128398637, -0.2359490937312829, 0.042145281351574346, -0.1956003464202569, 0.010552210406456678, -0.008213083913688392, 0.09449933953058941, -0.06719629241054978, -0.04118097329338642, 0.08416034408643124, 0.04188225363551469, 0.053464770564838636, 0.0573578693399141, -0.20785558559047418], [0.08888843680938953, 0.07655859925170029, -0.12898697363912484, -0.018713304702688484, 0.020136076519611006, -0.01699858208820496, 0.04259112635171806, 0.19193693291289207, 0.13223030976561814, -0.16402739917892578, 0.10300425405094801, 0.09483964668138793, 0.05161023880944379, 0.14841985787826775, 0.23277082364389656, 0.13854889830360698, -0.004451685571778869, 0.1258902009078254, 0.011503694758036207, 0.002987880410619434, -0.05192094627436336, 0.19542666985401352, -0.09689514562723729, 0.17067838195911833, 0.06499634326858011, -0.16074738850202783, 0.0459561616239277, -0.262503313456453, 0.06673432668803017, 0.11058960699770412, -0.07213075454785105, 0.015443461994447792, 0.24426967921878578, -0.08938886174473581, -0.13236344838207506, 0.13158612797120206, 0.24296332217878097, 0.0027208409921646365, 0.12643287942604453, 0.1675483907617886, -0.09393330173392585, -0.09064479924626094, 0.13017323680703535, 0.21079400361868136, 0.06107772872486609, -0.13575417065886766, 0.252831349049889, -0.05996815198074024, -0.02610625222047869, 0.04974741625686195, 0.19968341104635268, 0.06400355731583948, 0.050536600738457726, 0.05791106626476328, -0.025868362453222472, 0.08088244611813507, -0.2938156290369135, -0.027235162807371215, 0.030165241864597625, -0.14400620452487245, 0.048290414726445, 0.09817895735960415, 0.22889601106748206, 0.24166019978027187], [-0.058225696139770355, -0.018854713945836914, -0.009243445701049074, -0.05645743451995284, 0.024378123003515842, -0.09478525861094877, -0.1413269168671908, 0.07783890298753357, 0.07869119802772635, -0.10053946995749904, 0.11191942884532495, -0.07894721614566642, 0.03164565475474765, 0.102543001576557, -0.004201570587964126, 0.0568426140176418, -0.06455370548594647, -0.024558322928512146, -0.025732428860042546, -0.09332229331752986, -0.02209677038947276, -0.19357728735796834, -0.061394218392763086, -0.035609436671208854, -0.032022469061922514, -0.030187180733847352, -0.007720524982516116, 0.059930189760757986, 0.10931463426656532, -0.08122065335603339, -0.15040010692364306, -0.13025555153038787, -0.06090036514936589, -0.04399016472706364, -0.09624950827468216, -0.1620145830312368, -0.057015103434273524, 0.02267832751424642, 0.07437868322944559, -0.06967788163854015, -0.05162472776792926, -0.11583728860591384, -0.003929896296847053, -0.10605357927385183, 0.07164097665515001, -0.2232333114917639, -0.0449537090565578, 0.03763841739896776, 0.022979314540313045, 0.3366292079975621, 0.04372500307098844, -0.12550682460525128, -0.011933030886134129, -0.22203079168330647, -0.01007496866209511, -0.10413200712509484, 0.11442378444502022, -0.06869253432444186, -0.014595739474405829, -0.07944473017555043, 0.2173564189816664, -0.04015534576473896, 0.22906963043490022, 0.10176897026478332], [0.08233646978902638, 0.046091643414689965, 0.04432840850071709, -0.2556924798501517, -0.028624519808160102, 0.10548397590443578, -0.006707597694598132, -0.1726872102730141, -0.01746250179570575, 0.2130131895319364, 0.14958465089711007, 0.012851240112779973, 0.12092906223944452, -0.04144266135342507, -0.21126630245331268, -0.09466603402433132, 0.21151448675744314, -0.03409951758171926, -0.03800792089782434, -0.03747977453436007, 0.2306283898428476, 0.2032106733019495, 0.2838625825404718, -0.023251761168354517, 0.03136404040718636, -0.19353094932799417, 0.1846168032647843, -0.14597244390849187, 0.040742090891815914, -0.13960025001772133, -0.07450363905341963, -0.10465780388121254, -0.07598440758447723, -0.051373040695944, -0.06853359936563463, 0.11651546186271412, -0.1475287843402657, 0.03067448349216462, 0.1522448940381948, -0.06411160870353382, -0.09013040415531341, -0.037381741847270986, 0.15844158945615272, 0.018349180840774394, -0.08198174393139153, 0.05851510172239244, -0.13365314451950905, 0.08205566789215933, 0.031930627532081556, -0.04745092020330588, -0.09774889375996065, -0.10710016949425923, 0.06557014262019507, 0.15362256281113273, -0.07113115048883123, 0.06591759228186422, -0.2579061954003665, -0.08139907341310623, -0.003882366608862744, -0.1162081236793967, -0.1170632968486995, -0.050197421841641665, 0.03832668664576499, -0.04058511363365228], [-0.2797789041656215, -0.26508751907938327, -0.07656700075157351, 0.057929898750156465, -0.3435869021825531, -0.06269493702477336, -0.06608149928095063, 0.1736272878099874, -0.048127726464107956, 0.04787362309261606, 0.0170165008274649, -0.2675618905475839, 0.09602590207896716, 0.027290728253560687, 0.06334683757205684, 0.49114070008812166, -0.260857309349445, 0.21558708122013856, -0.035930939925044446, 0.03591611305037616, -0.005689598610339664, -0.05302954167475544, -0.07122911602984484, 0.04118859194662614, -0.1896467120839599, 0.09397249651116873, -0.05202430061065674, -0.14125866738004472, -0.05673207698548052, 0.15689140099146492, -0.06706300178558001, 0.04480670227620253, -0.09136953446443416, 0.0945470020980389, 0.08568846734877551, 0.23071295362156968, -0.021662477574390455, 0.0835995644110631, 0.012258442442368069, 0.1619839727328768, -0.0898540484510913, 0.09312566410966014, -0.02421581759602047, -0.00802770194290934, 0.011469060556046608, 0.031530049553334674, -0.014528630390244771, 0.026839147896315793, 0.19726475719527306, 0.12294574496234861, 0.10850854796062949, -0.05681008314828271, -0.11115510352854054, 0.1194125697797191, 0.10950584906622428, 0.18408383446887275, -0.07549757824615369, -0.0285783608279394, -0.20493552031567927, -0.049058888257609116, 0.1245713138224309, -0.057075812890074705, 0.08005997440010297, -0.02276611407536903], [0.027301970115264425, -0.14346142372695841, 0.010480314566071907, -0.3672836879856765, -0.05088917003125321, -0.2041467173226201, 0.1500552277345391, 0.08536029882713615, 0.05943523716549835, 0.1901257783949225, -0.11758460201326731, 0.2281024920163362, 0.11880689906928125, -0.036851798371175894, 0.14827263809513058, -0.15554059412998375, -0.08660682385384184, -0.07666171547091762, -0.05871761770538986, -0.1320697053450316, 0.1521720182494078, -0.032356800046228956, 0.03831664686298462, -0.07023330766328449, -0.21622803626007647, 0.026971367918413074, -0.2390318719274721, -0.008579255760683576, -0.17618776776560788, 0.2480800025579854, 0.1138443148903891, 0.013219223908935053, 0.15796333470683357, -0.09959629185779444, 0.06793492233376162, 0.03927590047631709, 0.02787144835424874, 0.14735540466582459, 0.09156151284747528, 0.036027996484981464, -0.20686092952853702, -0.10819156945581546, 0.0017787406648005185, 0.023338206867244214, -0.1353493618370885, 0.3097353610593475, 0.19280038852875406, 0.07219994631410138, 0.020700495783986333, -0.030024131645452305, -0.12659168278593486, 0.021137899880821022, 0.03358547363882079, -0.15522007193520304, 0.05768472664807858, -0.00984681070498293, -0.24331141788674945, -0.10718583049954299, -0.05170069167770553, 0.23588457214062059, 0.06956914056671977, -0.2319797101029084, 0.06082202277477735, -0.2082818412263148], [0.13601560034667595, -0.058890581477234825, -0.011704523592396356, 0.16572458094277376, -0.15929112178767194, -0.17377208858066467, -0.07321095305349343, 0.1298126225905426, -0.1909173993494954, -0.3540194497638211, -0.054980849197876484, 0.06367734734546801, 0.15249758740039623, -0.05489469035244557, -0.054993710124431536, 0.14011497764497044, -0.2390577150990781, -0.050231695000145606, 0.021536332877464075, 0.05615234016062928, -0.07114175499296933, 0.004305126463230169, -0.3033608894198256, -0.08228105154173104, 0.059419935839301774, -0.11810144284871896, 0.007373027698699672, 0.05585906260033725, -0.041450942681708895, 0.021200243951834098, -0.12034157066057653, -0.02582640996200583, 0.07627702119865282, 0.019655337953113607, -0.07331640869549194, 0.027468190268069972, 0.09075109725756518, -0.25724577597774356, 0.1448842581194872, -0.042031842335134, 0.05318624165502878, 0.14792552198389902, -0.17767864935585367, -0.08833782186034966, -0.039658971465067965, -0.09590669886482177, 0.21592255114423806, -0.10884551692259473, -0.06700503423788766, 0.02836571487544826, -0.14494504740898004, -0.05431148414169667, 0.038783618326974564, -0.041607550547813905, -0.012751589598184423, -0.0578772985407877, -0.19104045531321626, 0.03832425407115018, 0.2193666339559052, 0.0021073118108029974, 0.02815801465594369, 0.09680309921443725, -0.15668907753813824, 0.21235937495797294], [0.013363838519490119, 0.20398211238613861, -0.09246193875239422, 0.22097402475069705, 0.09318270667591796, 0.06959628781260958, 0.027644038290079033, -0.027967306915923258, 0.14877730335893266, 0.01754498373100587, -0.23648751934906206, -0.15154751436543862, -0.023387074403516537, 0.03901117476788312, -0.017380297498069606, 0.1795115093775763, -0.23421516761496197, 0.017948492063145024, -0.22847577819803058, 0.09496403693552105, -0.013324511178433598, 0.05245124650301477, -0.11875878872225806, 0.14221469125828265, 0.13016815645174398, 0.08063963024248223, -0.016189655857930096, 0.07248216066189152, -0.09889942925228237, 0.10694067319678227, 0.20719452854223747, 0.13382631999739827, -0.09120030872592619, 0.04054981966805974, -0.16164269296983097, 0.05640200276258955, 0.051822405805230294, -0.23706470281861158, -0.14522298048904547, -0.03539236209297089, -0.037755653473319904, -0.16185660526953058, 0.05498000628905693, 0.03523535288140223, -0.010168561615579691, -0.1182821104674134, 0.13491206678471745, 0.2074513901495501, -0.0604596754515862, -0.07866709127650959, 0.07052134358985933, -0.05365793696008387, -0.017424590364272182, 0.09245664396558392, -0.23686040770300415, 0.1610685400533257, 0.02124807516864918, -0.05313074129702424, -0.011154269277681116, -0.004722180993090978, -0.21640016293061567, 0.1976531509983767, 0.005160001585517914, 0.06594743950947317], [0.11113817957985812, -0.12764530719503753, 0.05955297712425055, -0.03356353768165316, 0.10178216505850221, -0.26803689430778405, -0.013978993624818725, -0.07886506955253088, 0.05401557875969096, 0.05875552342102527, -0.08845323685275326, -0.08494522565153467, -0.01383317106966618, -0.11224953415702696, 0.10402324343506217, -0.04755258865169933, -0.35585742586938146, -0.046842433806728964, -0.12983096885818504, -0.20390947693261818, -0.15752705943700107, 0.013676058979121258, 0.16407015507613132, 0.04374355793263576, -0.07588794354406495, 0.05736764091586383, -0.05738628877737397, -0.08682504614539308, -0.14634388726626243, -0.21897506089083085, -0.04874046331993066, 0.01975668624001648, -0.012077958751861215, -0.04853239660644621, -0.11821825758709764, 0.08114878182171611, -0.16643852242611581, 0.09118806982689905, -0.1252771273658406, -0.09402093863828265, -0.18334814882695963, -0.06238683450812395, 0.12895208594719215, 0.06445471559369517, 0.12638668711625087, 0.06634133440067783, -0.13796237542977466, -0.0414406100940141, -0.09737037593516112, 0.1664891551988715, -0.1495927493593376, 0.11173369949549067, 0.11161622506823667, 0.2287025252145109, -0.0465608813643312, 0.08905476011438383, 0.2852148602031858, -0.0772106164434095, -0.19188003094154496, -0.23500125423847046, 0.08908900360766642, -0.24454073031101056, -0.04651850960398248, 0.05238015310904188], [0.021062490413268, 0.05318060802302153, 0.02052884720285682, 0.14096196588744792, -0.06890173165524718, -0.08441643934755173, -0.10101046849995653, 0.12341847172700796, 0.1187932874120465, 0.05640316491481352, 0.13640170476133892, -0.15447578900231215, 0.2082144364931832, 0.1872133073230308, 0.08681943603348995, 0.2551530435593091, -0.20345057537710862, -0.06555601703283148, -0.09300558124564333, 0.0901849154696679, -0.12069995002146948, 0.09467822385980704, 0.16221087235348122, 0.0788570666337787, 0.019512760444646025, -0.11172091523530947, -0.10585637076567057, 0.15620236316208333, 0.10566373979130075, -0.004359139948788315, -0.05269299276001301, -0.2532259841389221, -0.13385655233555485, 0.23575094269541616, -0.16005694637530835, 0.006991196934715194, 0.1379135737005254, -0.1448975847525383, 0.023088809347635412, 0.11755815223601598, 0.0015624152384062918, 0.34425218556429704, -0.20361472784558718, 0.13147670570106665, -0.02136823920410584, 0.08526964455707052, 0.051106404093035705, -0.07913834208162195, 0.04199424233844502, -0.2236986392608707, 0.08374752589005932, 0.034124409726805596, 0.07812189015361183, 0.13226479063589378, 0.05454236745964159, 0.0021409853800393145, -0.11251652774448101, -0.08758696084884132, 0.14834182752216638, 0.17938684452807882, -0.029763804539006757, 0.0377691776302209, -0.11880399816075982, 0.14605065027645409], [0.03866516818732289, 0.24265217955796864, -0.09214547389752403, -0.005190350593170454, -0.03578162087328897, 0.07792381028104035, -0.024450642838438157, -0.1367792781674658, 0.11353552788899135, 0.0901419203181977, -0.1272247138001224, 0.18466759720190132, 0.14750078033929157, 0.009083365363973759, 0.010231826657935456, 0.048640841402224584, -0.076211131173415, 0.0019360643074651002, -0.2538903013499196, 0.10955695568786694, -0.19444055692607837, 0.18792747855362488, -0.0668933429151627, -0.01915333229459312, -0.06069762963541672, -0.03607704986666951, 0.17731641814350457, -0.31097608206688493, 0.1310516940189907, 0.04131836572374072, -0.15016119439337663, -0.13441404913115473, 0.20954912840102538, -0.10204837687925646, -0.14416881382449492, 0.18473734294910932, 0.04270234479476342, -0.1416763105498486, 0.027078121925577375, -0.12831864588289887, 0.13684425934955247, 0.14306222783995043, 0.09087939248085423, 0.052493922513823614, 0.2359605564462768, 0.019615076449938002, -0.15922062680234889, 0.04473691994010312, 0.2842827913745203, -0.13146806275442469, -0.06210651548858155, 0.07013647165549623, -0.0035766656131871076, -0.12278794754716432, 0.16109689038346658, 0.299847305475542, -0.002788499938538262, -0.10708089151646838, -0.19362006563168438, 0.031735946959577474, 0.1379846679145322, -0.07813021716239364, 0.0024720655557389725, -0.0889453449895752], [-0.10874576606139139, 0.10434391579061027, 0.11046530698471606, -0.24961858700972023, 0.2695691827991225, 0.08146629477675087, 0.17675627032306315, -0.12526264973709783, -0.18106394744566612, -0.018621163720912114, 0.05947552580287193, 0.17423687471428131, 0.08915027866459636, -0.0117700311420699, -0.15439905819956037, 0.2544987361323229, -0.16124062168637512, 0.20356054351478078, -0.039413516761194936, 0.1988227590772313, 0.0834298886293003, -0.017124436180307283, -0.05009622628181411, -0.06009450078611607, 0.020787701691109793, 0.025792695010256682, -0.07422642600858814, -0.02070392628970403, 0.019152729808887006, -0.2684520600027042, 0.05669595208647576, -0.12246515308960085, -0.14416655040071813, -0.2512056880363009, -0.2242365622334863, -0.21252065319978877, -0.06836464880358588, 0.28585037620057124, -0.06573495948690049, 0.022059085078064988, 0.05006017331329109, 0.0022876267415317957, -0.04549753266624279, -0.15454110092890752, 0.14665520464718068, 0.19373872859967387, -0.2186208137138498, -0.1174484849394886, -0.04646794843272052, -0.11332740916983017, 0.11612224896180183, -0.15048359950712512, 0.2641336948844264, 0.1488185742929495, -0.023699900336684458, 0.13367107910547435, 0.14288096098511352, -0.07626524702351477, -0.1020271555677456, 0.006424965280994665, 0.107704515562243, 0.2072051791587044, -0.21716724679330995, -0.08327448620858201], [-0.05660853075658414, -0.009458200540728783, 0.3093437664666525, -0.10772741432125688, -0.027405288047020023, 0.17963384271388627, 0.28567025163893633, -0.10230949854415171, 0.06459750987309379, 0.07122004464983087, -0.009420882868767853, 0.04266368148843824, 0.06246775458957174, -0.3201581813279652, 0.0742503509868799, 0.0414070876007913, 0.06504188420069656, 0.253770334888706, -0.0631214933341407, -0.05038449863312885, 0.254187242634703, -0.10400801477907123, -0.12365506118587556, -0.01389376896336637, 0.1466063307772146, 0.032192715752741796, -0.16157816839403283, -0.06652107039089869, -0.10250150010444325, -0.00886660669361531, 0.05530597864725507, 0.05227571948599651, -0.22200146925605027, 0.1882440286579692, 0.031571105749577937, 0.2457714983459384, 0.06288572481436447, 0.08900071189451257, 0.05831816393126587, 0.16781527985294906, 0.06365602198710547, 0.009897509077885079, 0.33197045879380344, 0.12020727134755035, 0.07296154298246207, -0.14885363838665538, -0.2059769112633911, 0.025139487054892162, 0.06432084965661723, -0.09551659471058477, 0.0006304130440938607, 0.2545735278365659, 0.09228492678705902, -0.14262606371909228, 0.03343283650999326, -0.08771206437699913, -0.12604034951714754, -0.012995977863650856, -0.05970569782550065, -0.15670694093518212, -0.015956835189773765, -0.3552522725283654, -0.35506808598906126, 0.1681869035388358], [0.11500020110709386, -0.04703759061562451, 0.008001023941360333, -0.12234898027398057, 0.21442411739104286, 0.230848637790423, 0.016686158795883362, 0.11660995513768063, 0.021586844664307197, -0.16709067985949133, -0.058529338048680934, 0.0226672303550924, -0.05674702435608644, -0.030709746446824428, -0.01716637503950458, -0.02592974584018918, 0.01926691268430109, -0.13302963419181213, -0.09004471000084303, -0.16057303321249616, 0.12309670724012084, -0.26321926727427747, 0.12157453982470959, 0.1738698667504066, -0.041613251362834495, -0.31807368871480507, -0.04516382024591131, -0.00802302016110241, -0.12717408990671086, -0.06469117455894294, 0.19136944381762544, 0.08311589528771762, -0.11557051429726249, -0.19523177385942309, -0.04087716470122139, -0.02091835727486301, 0.0664828704876884, -0.07942167376054361, 0.06393744692023268, 0.24211723978404098, 0.10139857322438937, -0.01647790885913374, -0.006958201116132991, -0.05488148520593651, 0.15357333820737665, -0.08068218139522451, -0.0024597514986793518, 0.0083730151766832, -0.045264788460159265, -0.16551916514588944, 0.01995911019257893, -0.0019490199677786545, 0.06268878445486815, -0.06670003830489586, 0.17052891449273294, -0.1150472513778302, 0.20613261645821562, -0.2089494692988655, 0.054346258069611394, 0.05940413315034371, -0.09944463349261029, 0.027877067296876498, 0.16093003357235047, -0.2790438943341161], [0.10315253786730502, -0.3116588525412597, -0.15241806030939492, 0.16490484652643875, -0.0036635781540518405, -0.14578375534321947, -0.0298319365957305, 0.3077798858423466, -0.22899371955482217, -0.13141373895491806, 0.2084710313102191, 0.15355583330559724, -0.012498675686575296, -0.1367660050653059, 0.2569989787292174, 0.22089713572053002, 0.008909311294493084, -0.1044055275296398, -0.01794377745569877, -0.020045010130603846, 0.03341193125632786, 0.1813566998039751, 0.14493918004353454, -0.15890759926134213, 0.1491961539509983, 0.051348313140124106, 0.08588322448236453, 0.18331760740982536, -0.10847283393137112, -0.006246602409225103, -0.06784234608733473, -0.19598242817068198, 0.04333874720061499, 0.27740194764073833, -0.2300097180632191, -0.08625575034357891, 0.08036613637254474, 0.05262059657419854, -0.01414100656446755, -0.16252997986261422, 0.02867509489747889, -0.13261631799187687, -0.3246117636608411, 0.1468783103776063, 0.08595604505766985, -0.026007751579473205, 0.04838588803943228, 0.14884415661732894, 0.022179970292501856, 0.12423899091850303, -0.025911703029466913, 0.10965489532702193, 0.03646382929053261, 0.024256492950734253, -0.2052238409240188, 0.030625618498182045, -0.0619462934208287, -0.08633397247609932, -0.10192195353951514, -0.1353409603342566, 0.2655964253771202, 0.3920412522617039, 0.245204923326134, -0.07614781233628148], [0.015569719385950377, -0.16168845315051197, -0.07667134954389736, -0.07550091966594683, 0.1394703605084117, -0.05685474126750077, 0.13272579961004222, 0.05347247435044557, 0.27791909950475296, -0.1849305278924655, 0.1384720766919429, 0.17344472410767048, -0.12153896969359262, 0.13842325027627309, 0.0304408117878658, -0.0004249063285558796, -0.07482711007604734, -0.08988868143114824, 0.2499423490834767, 8.53523696853285e-05, 0.08707480772465324, -0.09889883578989246, -0.12151986500889665, 0.13418892220321255, -0.1684280034111395, -0.047998057282420126, 0.004253426384029006, 0.013921575230006552, -0.024836779855344812, 0.04795754067565894, 0.08643994995460057, 0.09182969318241625, -0.12322547608347834, -0.007880292766014823, 0.1493453577346172, 0.12245645983188978, -0.17093812763689184, 0.03453717355349636, -0.24727815617185128, 0.005866862757546203, 0.23559486896179294, -0.13011763710595056, -0.08343402350451225, 0.07235315327873763, -0.18883306440159864, -0.09767390925249883, 0.06549317836786513, -0.08738335029603488, -0.029498883811171862, 0.07787661558774557, 0.05395892569438187, 0.039632997213639866, -0.04239028490875484, 0.04625763940861942, -0.005067094988604345, 0.0509088527579158, -0.07972451565588043, -0.010007940910687619, -0.12374472406900174, -0.0045614041052892745, -0.1013751079536056, -0.16500705660860712, 0.032332643481923516, 0.005316715295620138], [0.09858035311691132, -0.05389069619688738, 0.04955278935017786, 0.0689473052758204, 0.044690602898678676, -0.10246277116652715, 0.018816605258335544, 0.03870338140031017, -0.0034133604823775292, -0.2608097072963856, 0.016852703175554668, 0.29136563258750503, -0.03877045637543896, -0.09367580845221077, 0.05283260833381478, 0.03609361026781171, 0.16348126772748864, -0.15723215790710807, 0.08580579376695824, 0.07380275765643293, -0.019487590470983855, 0.04233591474021125, 0.13102780542256498, 0.10903942250355629, -0.13072842734969461, 0.10031219358872893, -0.00808607562906481, 0.009109262251939424, 0.009256122110130032, -0.018718538884973622, 0.14821888460296365, -0.010464744981151502, -0.1399432660478961, -0.039296646048404556, 0.02233683960130945, 0.16540217606339802, 0.07072403103600462, -0.11522284598998668, 0.31064873958486144, 0.032922320157667745, 0.15942384224987685, -0.010794209794967551, 0.07306198913376082, 0.11544558500438201, 0.1531421833723427, 0.1369864014355379, 0.11068052256659433, -0.03994869794549459, -0.06457485722184032, 0.04048805479828884, 0.11207061396355132, -0.014903459959053615, 0.13299003681077037, 0.18157709318577242, -0.09838708265012018, -0.09628348306268991, -0.022134530237478495, 0.03786412379466344, -0.06557087672088137, 0.16902377787325423, 0.0530083576898064, -0.028582811414436228, -0.17820800944749313, -0.1869939952910217], [0.037283267885615874, -0.2665744532693545, 0.1378252988677454, -0.0021860463816466523, 0.38906212781230715, 0.2835934156371292, -0.025363572394215605, -0.02137925453543104, 0.1330104825174535, 0.21289657623975472, -0.2135185407348871, -0.2191937986092822, -0.07773985269456207, 0.0826051672875726, 0.06407420186007576, 0.12807642985614476, -0.15902587353312952, -0.290620341978527, 0.11587561497936237, -0.10352453412065432, -0.2603988544642837, 0.018108501259315103, 0.09246070836599769, -0.015257141515159658, -0.05889751121109289, -0.01139278739733928, -0.04632284530009786, -0.1685058889925209, -0.08418807732126797, 0.06492944168784141, 0.03973059838731672, 0.02100747574585253, -0.12439356023167243, -0.015113533228702897, -0.27213313080535684, 0.01923640355469013, 0.18592490641655196, -0.18217935024145682, -0.07324095916471941, 0.04099776905526747, 0.1559622237623648, -0.05893421427783684, -0.09552880021785433, -0.2514914224672587, 0.017503916146581325, 0.25483622161199654, 0.02865477894836274, -0.008249429035191488, 0.053761547327711705, -0.0024519046718800915, -0.11128425669318817, 0.10569323587409667, 0.029713880246805307, 0.0022016564917071643, -0.13315008556004185, 0.15484627519991195, 0.07237053602627644, -0.06083074266087756, 0.12522810671024215, -0.06250963514814153, -0.09775043656387962, -0.1414804279380185, -0.22171310161224028, 0.07565650095548863], [-0.22889310979229377, -0.15355547890822033, -0.25944850113481666, -0.010758711598861633, -0.01879005753398401, -0.040837026648295506, -0.13032221183382203, -0.14652921917958, 0.05804623294332177, -0.06881899146356096, 0.03954479019201809, -0.11065608576552781, 0.022632842846385292, 0.16290975466450797, 0.07327072504909792, -0.05155172727706005, 0.03214987129449092, -0.030083146816276628, 0.000985023086841019, -0.04070138151856295, -0.0205419007356739, 0.026511669134271904, -0.12416983744774383, -0.1269848533737473, -0.17356781922890138, -0.20003388806296374, -0.15216033652755992, 0.019932813350516148, -0.11159843943648551, 0.06420180802888703, 0.004339218594070233, -0.2460630266797567, 0.08187194802771122, 0.10134983069896374, -0.12423283435435667, 0.05252394286187395, -0.10706227967614987, 0.012208797093541925, -0.1580623008693707, -0.2241383065668221, -0.047852148701621085, -0.015466118284354518, -0.049709961701825504, -0.14800381977781993, -0.049987382766392134, 0.03366184407259175, -0.005611628765317123, 0.022812628824901676, -0.08376440005677911, 0.14646473933951995, -0.14702166706934758, 0.060945037135839826, 0.1477363866199952, 0.060113511593611925, -0.025315528383103754, -0.0660371308328724, 0.129510956380782, -0.17787186565770913, -0.12126553254745545, -0.049694720686465174, 0.15470671968899977, 0.047470954505112004, -0.12100571981378067, -0.03878846317311296], [-0.09613757425323477, -0.08872362402919189, 0.16379288242160872, -0.15955369048490656, 0.18183124361138864, 0.10393599339210982, 0.14066351723020032, -0.07690587008012706, -0.02189407851624322, -0.179143976815589, -0.07577390410642194, 0.09335218879538129, 0.16520384646966635, -0.13774788954043082, -0.05114461040513054, 0.0006354250222244148, -0.140634024794893, 0.07510485275496873, -0.08825710971352976, -0.024423793897127996, -0.06102755670382519, -0.09866831182960198, -0.028770660388823456, -0.026951197321002797, -0.04636752300728597, -0.07952142688993617, 0.03994058384786943, 0.20670215856153562, 0.011117315942622722, 0.12576406751985958, -0.17213157932938425, 0.019720179911721186, -0.13717103987138332, -0.1739258695174501, -0.09242142593237954, 0.1775496716453902, 0.13030297420150283, 0.018691244863934076, -0.19158756998624135, -0.0245350814234921, 0.03747449142563459, 0.02705795924170573, -0.21813510122505117, -0.12244520808962343, -0.0033165344983140015, 0.06636227863372911, -0.3019876236935467, -0.02556509090212701, 0.027270591430276724, 0.10480508221427991, 0.08736180010360904, 0.08100029892036696, -0.10076818878623497, -0.23850026714041345, -0.04269570010071383, 0.128648047998233, 0.1485276388596061, 0.09715659693613395, 0.053667602850216795, 0.04741521612552395, -0.06951484334509757, -0.08480555933763625, 0.20431439863829173, -0.15958408414665437], [0.18448039306307087, -0.0402535193115073, 0.17037920941233964, -0.18089493512569713, 0.0648990658106067, -0.09678562754929426, -0.17909686582178663, 0.01637511087164953, 0.11939974850968905, -0.10561767982418704, -0.18738898576385954, 0.008249725966080005, -0.006477192997473552, 0.07106051115355261, 0.11266953909175594, -0.017671641199394742, 0.24136866019987882, 0.029120795039091214, -0.03758636805012381, -0.2014459198878535, -0.03929361859890392, -0.04204836817639203, 0.11714270070686875, 0.07713214958393141, -0.14878461838835916, 0.018049717769993798, 0.08394139646613168, 0.1910039199234791, 0.11186331771344503, 0.09562132658562257, 0.00750617234280217, 0.0485390006779312, 0.15618811258826984, -0.17100786504702117, -0.04367991590211949, -0.0740523752938414, 0.05379987414205482, 0.14684270188932208, -0.07462178584013424, -0.29871675434722905, -0.05152759312805877, 0.1356508480420834, 0.0874747693955419, 0.05387768734437363, -0.013816843923151488, -0.15785372540915704, 0.06381046965385206, -0.10644288347352361, 0.29193608992096665, 0.07371627407721486, -0.07459157954376454, -0.08202090236171286, -0.012783503660644227, -0.029937740252718722, 0.13864310279127895, 0.030235598616533604, -0.09094829720245565, 0.23750450719735605, 0.006163541440027829, 0.0959493037235452, -0.07602831343059491, -0.02053187927402989, 0.00933214666335478, -0.2699348800576923], [0.25262353525839504, 0.1613305576153184, -0.05218832915913249, -0.1633256789468407, 0.053853614627644875, 0.014395683868246129, 0.04169941344753886, 0.04889596052447161, 0.06413216102514416, 0.18091321242397582, 0.06614092942526806, -0.14835042644705076, 0.17246092697729387, 0.20971655093882072, 0.3952108944567665, -0.09768940316127894, 0.030811058527750044, -0.2612732361718135, 0.0741189933138699, -0.06852503727084658, 0.24375790256225593, -0.09682687125232274, -0.20656555943690663, -0.061939003447537985, -0.2586976453019592, 0.09917094825851133, -0.25813538078204007, 0.00355719764789486, -0.2587683965910736, -0.04610967063174402, 0.20506134021441688, 0.04508098642947437, -0.10793670062061675, -0.0009604545782488971, 0.002252109005555823, 0.07962894327733765, -0.1720531215421472, 0.07546608246075076, -0.3380489539503469, -0.07867555833221082, -0.06103423030644308, 0.07639627395424597, -0.006896486026302323, -0.171291708776486, -0.13981512226486797, 0.03359321938951076, -0.011794721314306283, -0.07510769237992013, -0.07714439835543067, 0.08117455501239874, -0.04952474768079072, -0.006131748990435193, 0.2717167090436232, -0.17796032961049038, -0.23605558816810823, 0.1068925081323064, -0.08818301992444638, -0.050588695205054185, -0.09764454726638927, -0.03929147624927978, 0.19981726401204267, 0.1284566107287483, 0.11143645157135196, -0.1645235448811333], [-0.17153978946109474, -0.35488483243567837, -0.06399841822774237, 0.1746460216060945, 0.006151698295182282, -0.03726830847155922, -0.012082286836300806, -0.1308602691710194, 0.03513484410513085, 0.09573478493507685, -0.22744164512194523, 0.08367562327149218, 0.1270009566802685, -0.03538511617481766, 0.1033463224689293, 0.35175509376081787, 0.059080552965248265, 0.04669211165077597, -0.0731748825877354, 0.0226563953252563, 0.03623156675016053, 0.024308328500850004, -0.1769516935350722, 0.024814712982487108, 0.18760209827650054, 0.07748935039715128, 0.12024839863398012, -0.029626496251578465, 0.07676265604780283, 0.028945127809925624, -0.12042801191728507, 0.03981512559985931, -0.12396208293003881, -0.017043947951982018, 0.023666038411546766, 0.1438208036851687, -0.15333168750755405, 0.07360406929627697, 0.07150078478755911, -0.08849319649516495, -0.19326933970295734, -0.003115549738685356, -0.016894865414686246, 0.012395885745281785, 0.004746097560277716, -0.23110952585385894, -0.06879179854841597, -0.06888068488404996, 0.108956733141823, -0.1043747442923207, 0.18547979475475102, -0.16202385675331024, 0.16933661185480506, -0.0280398713597631, 0.14077993104778933, 0.017896401667225594, 0.0982425868525853, -0.035581456355318175, -0.13732755314722653, 0.17001338825753382, -0.014185080735267648, -0.229138212883617, 0.16295979657675783, -0.16133810953999952], [0.019305640017068266, -0.07373684455786136, 0.0013223040984792244, 0.08399259321374006, -0.22144824278224653, -0.11450266499305929, 0.16178343935686296, 0.08585706712504305, 0.0027848456136865224, 0.030390432314111634, -0.0701945572785565, 0.17140463255608304, -0.022343680133750668, 0.028506661403753655, 0.14003099189012613, -0.14759342535650247, 0.20234886418868708, -0.19690312422929587, 0.21840068332263043, -0.04658444799399682, -0.03806576616858614, -0.2363164916172351, -0.10379730195526302, -0.11596892959031607, -0.0774216792876027, -0.0014099113693540873, 0.1197239518091132, 0.025950418925078222, 0.03935116286108688, -0.14056770585785205, -0.11076291179436899, 0.224840627293914, -0.09190012934540583, 0.2248040050072016, -0.030382649860108312, 0.021860527345228142, 0.14817399433465261, 0.13530097296683805, -0.013851570034885937, -0.048221066557606336, -0.00960417636969248, 0.024417246682242662, 0.13267197688830265, -0.022578659458228668, 0.07110508039274914, 0.2142816969422946, 0.02608218325133326, 0.033645431370929346, -0.12197758598694267, -0.3154238895692563, -0.008079226618492188, -0.0092339440401045, -0.060667688952723765, 0.03044127552329308, 0.024529236483914977, 0.13262144025659875, -0.03712603224432679, -0.06937975936292154, 0.12377077986991113, -0.03175860397068541, 0.06581708545903839, -0.16452767248701947, -0.07022865966309848, 0.02879711173592424], [0.01780497407581648, 0.05997837942085413, -0.03633329258319703, -0.23686104927060606, -0.0658916303853078, 0.09423155247686947, -0.043444519282271436, -0.03733614004832363, 0.1222961957228872, -0.08899665340736534, -0.1865046008417251, -0.00604978557464346, -0.06052174390609213, -0.1162632011803866, -0.010793332878207067, 0.03442111132770302, -0.0032658461903782234, 0.03837263408577972, 0.22623590460854573, -0.04285985769469551, 0.020850401657772896, -0.06369574490179929, -0.10121458353195018, -0.07895316188099678, -0.05983634019527256, 0.043627063356176735, 0.2936344733375947, -0.08950542953448004, -0.0291695361600124, -0.008614687854972202, 0.04818536407682468, 0.03294385149434812, 0.16051197424351465, -0.2967847698657381, -0.2983662337744591, -0.07392631618364637, 0.12718792664778333, -0.19569276507644084, -0.37595404246171965, 0.07139742577740109, 0.03032750492056295, -0.14293092706079538, -0.11832141461612421, -0.12372258703058213, 0.016965542278736347, -0.08246818437666512, 0.07299254233007665, -0.35822984049224876, -0.10710648314097491, -0.143373315330445, -0.051402297905869206, -0.06289666760954629, 0.09973047248697083, -0.2324170964575072, 0.0110333667571995, 0.06979205290146319, 0.2497224892146724, -0.06283325903566943, 0.04055732554406463, -0.22541565358482915, -0.298994525539128, 0.10017119679096728, -0.0006950367060088207, 0.15873579820173936], [-0.1803518988692377, 0.06498776744109407, 0.23089252280958195, 0.0442335358167838, 0.05047154851361834, 0.0024587737356972475, -0.19474757403518925, 0.1763349826580441, -0.07635720497563322, 0.06306040704787712, -0.20047263729097764, -0.15336960200653915, 0.1792263979209665, -0.05300897109197337, 0.1764413779879712, 0.016108252593256645, -0.21959807858917768, 0.11150844996646507, -0.07519206145409496, 0.08733610168963044, 0.015428080529844948, -0.1928897784928588, 0.007688975621691882, 0.268143700784387, 0.06125616829246331, -0.00946011248564708, 0.1344179252446122, 0.02633355815038885, 0.022270804785510613, -0.13645314651988782, 0.029231003223699797, 0.1294304270521181, -0.10450776901250308, 0.17111237897755854, -0.011463253018140747, -0.11964333931330794, 0.1269487997751085, -0.027798815797488087, 0.09493936093576348, -0.03632291498294983, -0.007478267941237962, 0.05623171077256242, 0.04897122591864574, -0.24607632020435039, -0.1451835894181789, 0.10309747049572598, -0.018180919630245495, -0.059105954101008044, -0.16393374595097232, -0.13166249094345034, -0.2456353293440092, -0.020117090721059404, -0.07480469757263086, -0.1208234863731644, -0.0020138601284500077, 0.04114400638522604, 0.25657101662034104, -0.1889433171954574, 0.14492263041256526, 0.12162032631644716, -0.09738659242208757, 0.04269838923257485, -0.057204156167201904, 0.012077486409122332], [0.13822214302299374, 0.07570077907891412, 0.09804641892957786, 0.013891495798305531, -0.1927406505385237, -0.030621092856621547, 0.15077957691400484, -0.23481699495650432, -0.1385337738450116, 0.01578346702925852, -0.12286448170828103, -0.05344165940152968, -0.04798647649542725, -0.1822187562849239, -0.13323661283396082, 0.08416044137267982, -0.09458830083143167, -0.20026448093356464, -0.08519261550138912, 0.09149443781373072, -0.022378989093240938, -0.05807263476445229, -0.06622302127624066, -0.216325915229717, 0.06537449254238248, 0.056119246765545534, -0.051163559261965155, 0.12574056397455208, -0.16805967501790475, 0.14151356575507684, 0.02149399086977316, -0.04206907373477167, -0.002484204421038946, 0.010132594997585792, 0.15253536205221463, -0.07759661713333385, -0.09279044671497891, 0.09322664895885827, -0.0744418668979824, 0.11263067272374694, 0.21170017953309095, -0.05613920088668885, 0.14318765838416578, -0.1630896364985686, 0.1394271565946263, 0.017435678640246345, 0.034561957410878266, -0.08596296080435148, -0.18208336533568079, 0.06367803017213683, -0.27032013261898125, -0.004988758469925301, 0.11749550449622656, 0.02398721698412951, 0.28290094775659347, 0.13033236984710594, -0.09387076908044736, 0.020547022795593027, -0.0059213378180544935, -0.19777267625560757, -0.11754986456054416, -0.19826963726853541, -0.2567844617298222, -0.05457476437983247], [-0.03113398058163009, -0.20911173766394678, 0.05052660815966651, 0.08948409308636994, 0.028379309858111112, -0.040508521901121274, 0.07393026896898186, 0.08502754505958639, 0.03842544621496105, -0.10307653130434512, 0.034575095688897585, 0.14943508135318487, -0.07457863232646628, 0.2622424173915539, -0.06570386674817305, 0.004050876667517027, -0.08406069950079202, 0.02790885449003261, -0.2177777115794094, -0.06825522485209015, -0.1365151500435709, 0.016917293486536363, 0.12430592193861342, 0.08075077338931894, -0.29645742010736154, 0.25525870661598504, 0.03690999257760855, -0.09706239256162504, 0.019640989873867604, 0.022023727812836548, -0.08335608961894546, 0.024739583417759437, -0.0759340359525384, -0.050545249086252846, -0.08578489196938556, -0.1790839112174566, 0.018229558776922988, 0.07316242956454226, 0.06436044950954653, 0.10249065657940429, 0.04054252625185852, -0.06659068727711294, 0.1049579830538986, -0.16968969248024188, -0.11258392281406002, -0.12052500892790559, 0.13500700739241378, 0.11784856426750945, 0.060913154630624355, 0.13399123315147465, -0.10991034780149851, 0.04357438998262255, -0.01564680354789553, 0.10586026298561424, -0.014403029069024699, -0.04811786105126015, 0.06761356482012375, 0.1095211458989041, -0.08354314935585021, -0.007634458919047012, -0.1323050792052066, -0.3122576271866174, 0.025057453926716124, 0.07611316953182899], [0.029041619773770625, -0.2436952147192959, -0.04916451350447956, -0.2869202826749385, 0.21254291700122963, -0.1255220545149695, 0.16111121896253372, 0.13765464896768498, -0.1282608685903279, -0.14159811890846813, 0.0680367117540834, -0.17409176076348923, 0.026825017006339085, -0.06357518943738888, -0.22406698845431625, -0.2116491083062946, 0.05322132461657669, -0.07652931869999423, -0.09126131849638651, 0.08698297988672317, 0.1501752569184235, -0.03406809017022615, -0.0452550303435683, 0.04214782694002441, -0.15993051174007453, 0.022430873535778936, 0.06898574647776926, 0.08502877605220364, -0.2676417215799062, -0.10043618878691418, -0.1061701684584777, 0.012485869301151623, 0.060093072470997995, 0.18789118629780796, -0.061870685046009136, -0.03641071025091677, 0.12107694476420432, 0.028371462411164637, 0.15845643889849673, 0.03611148527856255, -0.14515009471846446, -0.1760578256575255, -0.17697974228697552, 0.09549372162997659, 0.14189501733532692, 0.2091721350586443, 0.1059801936657835, 0.1401410168497977, -0.0800377446787289, -0.14864303656844102, 0.15155035180248905, 0.04519128572145082, 0.011115161069185284, 0.048421435079123734, 0.039461442028284756, 0.20031614365159375, 0.16675172135613953, 0.058854802977004746, 0.10572535907036602, 0.05788561250277248, -0.057646216504327365, 0.19528012928267038, -0.1368222053277451, 0.09644174136709806], [-0.1471645648702323, 0.03572541084934162, -0.11124511400552811, 0.015760611815003243, 0.029783911975422187, -0.19123127031513623, 0.057851569359160214, -0.02860050939701891, 0.10465852705091738, 0.00016571109180090368, 0.055381890642925355, -0.17379035900502485, -0.07170177204614148, -0.06515720498760155, 0.10652647642142636, 0.25755403434641866, -0.12184573980482032, 0.13057635946968424, -0.27941665295722845, -0.14927367513653617, -0.11020125135023173, -0.1690635861800903, -0.17654337357140437, 0.03991543496980916, -0.03493421255259763, 0.042793568807471226, 0.08630908576518913, 0.03320212414656668, 0.0871795971789607, -0.013550158820677194, -0.14833611977469355, 0.13222677260259952, -0.07363901659764087, -0.14350915805617362, -0.02223973447554977, -0.14029311598899166, -0.05565529018118393, 0.07415538318773238, 0.04354271740576586, -0.11201851708441093, -0.06121641613990473, 0.1133628123062909, 0.04389961972394449, 0.26986289159710175, 0.09801792103176434, 0.12866014046019478, -0.16996908200055044, 0.10504252633402333, -0.021580330745123756, -0.06387331402726674, 0.046091036471244996, 0.07207510083423396, 0.06049197427818293, -0.1098092251677575, 0.07171174497864502, -0.06402194267725668, 0.034131070026108115, -0.06045514105257968, -0.027358281466953214, 0.09017002513742794, -0.13002421497698724, 0.3971521739542077, -0.21138234364885045, -0.06394742474329423], [0.045108903763133465, 0.07303927080441373, -0.013476756329161147, -0.006710981683036475, 0.0516611098249599, -0.028813149255800714, 0.17571849441560394, 0.10448518815240869, 0.10843921784738676, -0.12076959042130213, -0.010286541647566741, -0.037494163288319574, -0.12570017196118322, 0.045203430729937655, -0.06752902057247293, 0.08100042995945118, -0.13268896656873483, 0.21575804640051507, -0.11199708568122212, 0.02741279215005451, 0.0988819551052822, -0.0713300537750141, 0.10624575595082977, -0.15381358539894324, 0.18272333749652822, 0.0022434466633893288, -0.07455142599610995, -0.03739772155342931, 0.10068059787318767, -0.07277710584121594, -0.0936697111778472, -0.02769207469796727, -0.147120264096246, 0.22784772354160007, -0.0707993239018404, 0.10372886006013764, 0.026953337476109732, -0.12456588149632265, -0.0007443386515911729, 0.09805534337860163, -0.02353266688578832, 0.14916743618233258, 0.12836988331336538, 0.11510397917945031, -0.056677615380808004, -0.1343322696653807, -0.07694219257417946, 0.024530099080545275, 0.06775086855794993, -0.2714798527397243, -0.0011365959701373027, 0.018913636083006113, -0.03530598557180596, 0.16140922987698486, 0.05177217136369371, 0.16440007417194444, -0.02536342192048267, 0.1173739104232231, 0.20438329931593993, 0.1642708043289131, -0.13651769917859163, -0.03100074293023938, -0.04377875819115318, 0.06171320976370148], [0.16135440444229177, -0.10486158425321704, -0.02625455740330872, -0.30367452279648577, 0.25448512397972434, -0.06292445295559096, 0.001290958948825031, 0.00957914655200481, 0.11532727392972289, -0.35468830517467237, 0.0027120455320421505, -0.047864561867623605, -0.04951136157898107, 0.23782052846807092, -0.1088619140710394, 0.17055973255260126, 0.029603874502740612, 0.15327350551477487, -0.1130196114625239, -0.09162111239046987, 0.11675116691387617, 0.05307828030641048, -0.15997832678405458, -0.09928411072190349, 0.024353545839193736, 0.10336324275513346, -0.08490383164911938, -0.36428199872711764, 0.10999418155149238, -0.1622404344757793, -0.2537497613887294, -0.3540407406230176, 0.10174760752471765, 0.02693481563593237, -0.028207047589031455, 0.1467366954928042, 0.052888731650490226, 0.22969052736310894, -0.17409193402087456, -0.004089684095593077, -0.20376716051365534, -0.07964678938928871, -0.03975158438514544, 0.06259796435734634, -0.05698617277847813, 0.04599329845591622, 0.11178729186200285, 0.27252117019407157, -0.08315272948265526, -0.13102578770316095, 0.059558260996898926, -0.13219167052752331, 0.17981493305138888, -0.03540225486815407, -0.08214398770942866, -0.03235737950303703, 0.12500602782357156, -0.042165497447480736, -0.08020835251629779, 0.19816981603569125, -0.10702123008271876, 